{"learner":{"attributes":{"scikit_learn":"{\"_estimator_type\": \"regressor\"}"},"feature_names":["dow","weekend","day","month","magasin_cat","menu_cat","lag_1","lag_7","prix"],"feature_types":["float","float","float","float","float","float","float","float","float"],"gradient_booster":{"model":{"gbtree_model_param":{"num_parallel_tree":"1","num_trees":"400"},"iteration_indptr":[0,1,2,3,4,5,6,7,8,9,10,11,12,13,14,15,16,17,18,19,20,21,22,23,24,25,26,27,28,29,30,31,32,33,34,35,36,37,38,39,40,41,42,43,44,45,46,47,48,49,50,51,52,53,54,55,56,57,58,59,60,61,62,63,64,65,66,67,68,69,70,71,72,73,74,75,76,77,78,79,80,81,82,83,84,85,86,87,88,89,90,91,92,93,94,95,96,97,98,99,100,101,102,103,104,105,106,107,108,109,110,111,112,113,114,115,116,117,118,119,120,121,122,123,124,125,126,127,128,129,130,131,132,133,134,135,136,137,138,139,140,141,142,143,144,145,146,147,148,149,150,151,152,153,154,155,156,157,158,159,160,161,162,163,164,165,166,167,168,169,170,171,172,173,174,175,176,177,178,179,180,181,182,183,184,185,186,187,188,189,190,191,192,193,194,195,196,197,198,199,200,201,202,203,204,205,206,207,208,209,210,211,212,213,214,215,216,217,218,219,220,221,222,223,224,225,226,227,228,229,230,231,232,233,234,235,236,237,238,239,240,241,242,243,244,245,246,247,248,249,250,251,252,253,254,255,256,257,258,259,260,261,262,263,264,265,266,267,268,269,270,271,272,273,274,275,276,277,278,279,280,281,282,283,284,285,286,287,288,289,290,291,292,293,294,295,296,297,298,299,300,301,302,303,304,305,306,307,308,309,310,311,312,313,314,315,316,317,318,319,320,321,322,323,324,325,326,327,328,329,330,331,332,333,334,335,336,337,338,339,340,341,342,343,344,345,346,347,348,349,350,351,352,353,354,355,356,357,358,359,360,361,362,363,364,365,366,367,368,369,370,371,372,373,374,375,376,377,378,379,380,381,382,383,384,385,386,387,388,389,390,391,392,393,394,395,396,397,398,399,400],"tree_info":[0,0,0,0,0,0,0,0,0,0,0,0,0,0,0,0,0,0,0,0,0,0,0,0,0,0,0,0,0,0,0,0,0,0,0,0,0,0,0,0,0,0,0,0,0,0,0,0,0,0,0,0,0,0,0,0,0,0,0,0,0,0,0,0,0,0,0,0,0,0,0,0,0,0,0,0,0,0,0,0,0,0,0,0,0,0,0,0,0,0,0,0,0,0,0,0,0,0,0,0,0,0,0,0,0,0,0,0,0,0,0,0,0,0,0,0,0,0,0,0,0,0,0,0,0,0,0,0,0,0,0,0,0,0,0,0,0,0,0,0,0,0,0,0,0,0,0,0,0,0,0,0,0,0,0,0,0,0,0,0,0,0,0,0,0,0,0,0,0,0,0,0,0,0,0,0,0,0,0,0,0,0,0,0,0,0,0,0,0,0,0,0,0,0,0,0,0,0,0,0,0,0,0,0,0,0,0,0,0,0,0,0,0,0,0,0,0,0,0,0,0,0,0,0,0,0,0,0,0,0,0,0,0,0,0,0,0,0,0,0,0,0,0,0,0,0,0,0,0,0,0,0,0,0,0,0,0,0,0,0,0,0,0,0,0,0,0,0,0,0,0,0,0,0,0,0,0,0,0,0,0,0,0,0,0,0,0,0,0,0,0,0,0,0,0,0,0,0,0,0,0,0,0,0,0,0,0,0,0,0,0,0,0,0,0,0,0,0,0,0,0,0,0,0,0,0,0,0,0,0,0,0,0,0,0,0,0,0,0,0,0,0,0,0,0,0,0,0,0,0,0,0,0,0,0,0,0,0,0,0,0,0,0,0,0,0,0,0,0,0,0,0,0,0,0,0,0,0,0,0,0,0,0,0,0,0,0,0,0,0,0,0,0,0,0,0,0,0,0,0],"trees":[{"base_weights":[-2.2441277E-1,-1.0336049E0,2.1666148E0,-1.8893558E0,-2.6975396E-1,5.576396E-3,1.14809275E-1,-2.0776694E0,-8.335552E-1,-1.1791202E0,2.910387E-3,-3.2231476E-2,-2.21651E0,-5.3564806E-2,-1.5898133E-2,-8.0135405E-2,-1.1064815E-2,-2.1963507E-1,5.9587985E-1,-9.4020796E-1,-1.2193588E-1,-3.2198746E-2,-6.255552E-1,7.404448E-1,-3.1736137E-3,-6.267359E-2,-2.0898135E-2,3.1843618E-3,-2.7173614E-2,-4.235983E-4,-3.8885403E-2,7.3263883E-3,4.2614605E-2],"categories":[],"categories_nodes":[],"categories_segments":[],"categories_sizes":[],"default_left":[0,0,0,0,0,0,0,0,0,0,0,0,0,0,0,0,0,0,0,0,0,0,0,0,0,0,0,0,0,0,0,0,0],"id":0,"left_children":[1,3,5,7,9,-1,-1,11,13,15,17,-1,19,-1,-1,-1,-1,21,23,25,-1,27,29,31,-1,-1,-1,-1,-1,-1,-1,-1,-1],"loss_changes":[1.2219705E2,3.0212643E1,4.0043793E0,2.6422195E0,6.4501777E0,0E0,0E0,2.1525345E0,2.7225494E-1,2.0796633E0,2.902092E0,0E0,2.2447662E0,0E0,0E0,0E0,0E0,1.1972048E0,6.189127E-1,1.3049793E-1,0E0,6.228999E-1,4.6286595E-1,2.072556E-1,0E0,0E0,0E0,0E0,0E0,0E0,0E0,0E0,0E0],"parents":[2147483647,0,0,1,1,2,2,3,3,4,4,7,7,8,8,9,9,10,10,12,12,17,17,18,18,19,19,21,21,22,22,23,23],"right_children":[2,4,6,8,10,-1,-1,12,14,16,18,-1,20,-1,-1,-1,-1,22,24,26,-1,28,30,32,-1,-1,-1,-1,-1,-1,-1,-1,-1],"split_conditions":[5E0,1.6E1,8E0,4E0,9.36E0,5.576396E-3,1.14809275E-1,8.41E0,9.2E0,3E0,4E0,-3.2231476E-2,3E0,-5.3564806E-2,-1.5898133E-2,-8.0135405E-2,-1.1064815E-2,1.306E1,1.174E1,1E0,-1.2193588E-1,3.1E1,1.8E1,7.35E0,-3.1736137E-3,-6.267359E-2,-2.0898135E-2,3.1843618E-3,-2.7173614E-2,-4.235983E-4,-3.8885403E-2,7.3263883E-3,4.2614605E-2],"split_indices":[0,2,2,0,6,0,0,7,6,0,0,0,2,0,0,0,0,6,7,0,0,2,2,7,0,0,0,0,0,0,0,0,0],"split_type":[0,0,0,0,0,0,0,0,0,0,0,0,0,0,0,0,0,0,0,0,0,0,0,0,0,0,0,0,0,0,0,0,0],"sum_hessian":[6.1E1,4.6E1,1.5E1,2.1E1,2.5E1,1E0,1.4E1,1.7E1,4E0,5E0,2E1,2E0,1.5E1,2E0,2E0,3E0,2E0,1.5E1,5E0,3E0,1.2E1,1.1E1,4E0,4E0,1E0,1E0,2E0,1E1,1E0,1E0,3E0,1E0,3E0],"tree_param":{"num_deleted":"0","num_feature":"9","num_nodes":"33","size_leaf_vector":"1"}},{"base_weights":[-3.7531905E-2,-9.8715097E-1,2.363481E0,-1.6553481E0,-1.2222039E-1,1.3367946E-1,1.4499258E0,-1.8066044E0,-9.651008E-1,-5.938349E-1,9.174973E-2,-1.2043834E-2,8.8593625E-2,-3.1157097E-2,-1.8983824E0,1.6761018E-2,-1.237691E0,-4.476587E-2,1.06581055E-1,6.815107E-1,-9.677286E-2,-8.5784054E-1,-1.0199346E-1,-1.4819252E0,-4.1301252E-4,1.0496783E-2,-2.5032044E-3,7.1432353E-3,4.067189E-2,-3.2469798E-2,6.2740065E-2,-6.1106753E-2,-1.6451534E-2,-4.8969984E-3,-9.017183E-2,1.3322057E-2,-2.8463826E-2],"categories":[],"categories_nodes":[],"categories_segments":[],"categories_sizes":[],"default_left":[0,0,0,0,0,0,0,0,0,0,0,0,0,0,0,0,0,0,0,0,0,0,0,0,0,0,0,0,0,0,0,0,0,0,0,0,0],"id":1,"left_children":[1,3,5,7,9,-1,11,13,15,17,19,-1,-1,-1,21,-1,23,-1,25,27,29,31,-1,33,-1,-1,-1,-1,-1,-1,35,-1,-1,-1,-1,-1,-1],"loss_changes":[1.5281625E2,2.7538994E1,1.506218E0,1.0753632E0,2.2745352E0,0E0,4.237239E0,1.097969E0,2.8960843E0,1.573566E0,1.8448839E0,0E0,0E0,0E0,1.0473557E0,0E0,1.7893724E0,0E0,5.9080224E-2,1.6803634E-1,1.1867E0,3.6845016E-1,0E0,2.0482054E0,0E0,0E0,0E0,0E0,0E0,0E0,1.5678456E0,0E0,0E0,0E0,0E0,0E0,0E0],"parents":[2147483647,0,0,1,1,2,2,3,3,4,4,6,6,7,7,8,8,9,9,10,10,14,14,16,16,18,18,19,19,20,20,21,21,23,23,30,30],"right_children":[2,4,6,8,10,-1,12,14,16,18,20,-1,-1,-1,22,-1,24,-1,26,28,30,32,-1,34,-1,-1,-1,-1,-1,-1,36,-1,-1,-1,-1,-1,-1],"split_conditions":[1E0,1.9E1,1.399E1,1.6E1,1.08E1,1.3367946E-1,1.2E1,8.41E0,1.1E1,1.2E1,1.119E1,-1.2043834E-2,8.8593625E-2,-3.1157097E-2,3E0,1.6761018E-2,1.154E1,-4.476587E-2,2.4E1,1.088E1,2.3E1,2E0,-1.0199346E-1,9.27E0,-4.1301252E-4,1.0496783E-2,-2.5032044E-3,7.1432353E-3,4.067189E-2,-3.2469798E-2,2.9E1,-6.1106753E-2,-1.6451534E-2,-4.8969984E-3,-9.017183E-2,1.3322057E-2,-2.8463826E-2],"split_indices":[1,2,6,2,6,0,2,7,3,3,6,0,0,0,2,0,6,0,2,6,2,2,0,6,0,0,0,0,0,0,2,0,0,0,0,0,0],"split_type":[0,0,0,0,0,0,0,0,0,0,0,0,0,0,0,0,0,0,0,0,0,0,0,0,0,0,0,0,0,0,0,0,0,0,0,0,0],"sum_hessian":[6.5E1,4.7E1,1.8E1,2.6E1,2.1E1,1.2E1,6E0,2E1,6E0,6E0,1.5E1,1E0,5E0,2E0,1.8E1,1E0,5E0,4E0,2E0,3E0,1.2E1,3E0,1.5E1,4E0,1E0,1E0,1E0,1E0,2E0,2E0,1E1,1E0,2E0,1E0,3E0,8E0,2E0],"tree_param":{"num_deleted":"0","num_feature":"9","num_nodes":"37","size_leaf_vector":"1"}},{"base_weights":[-1.9116823E-2,-1.0260204E0,2.2076762E0,-1.5115196E0,-1.426143E-1,1.3679154E-1,1.3168566E0,-1.716286E0,-5.087897E-1,-4.8693544E-1,3.696465E-1,2.6340365E-1,8.998413E-2,-1.9993179E0,-1.2514977E0,-7.412836E-1,1.6341997E-2,-5.2037444E-2,-1.0090841E-1,3.2321166E-2,4.580021E-4,5.0777465E-1,-1.1742735E-2,-5.110712E-2,-1.180069E-1,-6.381693E-1,-1.4017248E0,-8.4684134E-1,-7.976318E-3,2.2838974E-1,-2.7830562E-1,5.9137344E-3,-3.911956E-3,3.2345008E-2,5.7380917E-3,-4.227616E-2,-4.0268898E-4,-8.376246E-2,-3.5469413E-2,-1.2114859E-2,-4.8379518E-2,1.7965484E-2,-8.3625317E-4,6.96466E-3,-2.0876432E-2],"categories":[],"categories_nodes":[],"categories_segments":[],"categories_sizes":[],"default_left":[0,0,0,0,0,0,0,0,0,0,0,0,0,0,0,0,0,0,0,0,0,0,0,0,0,0,0,0,0,0,0,0,0,0,0,0,0,0,0,0,0,0,0,0,0],"id":2,"left_children":[1,3,5,7,9,-1,11,13,15,17,19,21,-1,23,25,27,-1,-1,29,-1,31,33,-1,-1,-1,35,37,39,-1,41,43,-1,-1,-1,-1,-1,-1,-1,-1,-1,-1,-1,-1,-1,-1],"loss_changes":[1.3679507E2,1.7797935E1,5.336624E0,4.670555E0,3.0021095E0,0E0,4.1036673E0,3.9196014E-1,1.4079537E0,2.032849E0,7.149837E-1,6.0629296E-1,0E0,1.8186188E0,1.1898613E-1,1.7195153E-1,0E0,0E0,4.724782E-1,0E0,4.6341047E-2,8.9794815E-2,0E0,0E0,0E0,5.15818E-1,3.2656574E-1,5.7548046E-2,0E0,1.02280706E-1,3.488557E-1,0E0,0E0,0E0,0E0,0E0,0E0,0E0,0E0,0E0,0E0,0E0,0E0,0E0,0E0],"parents":[2147483647,0,0,1,1,2,2,3,3,4,4,6,6,7,7,8,8,9,9,10,10,11,11,13,13,14,14,15,15,18,18,20,20,21,21,25,25,26,26,27,27,29,29,30,30],"right_children":[2,4,6,8,10,-1,12,14,16,18,20,22,-1,24,26,28,-1,-1,30,-1,32,34,-1,-1,-1,36,38,40,-1,42,44,-1,-1,-1,-1,-1,-1,-1,-1,-1,-1,-1,-1,-1,-1],"split_conditions":[5E0,1.9E1,6E0,4E0,1.2E1,1.3679154E-1,1.2E1,1E1,1.3E1,2.1E1,2.5E1,8E0,8.998413E-2,4E0,1E0,1E1,1.6341997E-2,-5.2037444E-2,1E0,3.2321166E-2,2.6E1,5E0,-1.1742735E-2,-5.110712E-2,-1.180069E-1,1.6E1,3E0,3E0,-7.976318E-3,2.5E1,2.2E1,5.9137344E-3,-3.911956E-3,3.2345008E-2,5.7380917E-3,-4.227616E-2,-4.0268898E-4,-8.376246E-2,-3.5469413E-2,-1.2114859E-2,-4.8379518E-2,1.7965484E-2,-8.3625317E-4,6.96466E-3,-2.0876432E-2],"split_indices":[0,2,0,0,3,0,2,2,2,2,2,2,0,2,0,2,0,0,0,0,2,2,0,0,0,2,0,2,0,2,2,0,0,0,0,0,0,0,0,0,0,0,0,0,0],"split_type":[0,0,0,0,0,0,0,0,0,0,0,0,0,0,0,0,0,0,0,0,0,0,0,0,0,0,0,0,0,0,0,0,0,0,0,0,0,0,0,0,0,0,0,0,0],"sum_hessian":[5.9E1,4.1E1,1.8E1,2.6E1,1.5E1,1E1,8E0,2.1E1,5E0,9E0,6E0,3E0,5E0,1.1E1,1E1,4E0,1E0,3E0,6E0,3E0,3E0,2E0,1E0,4E0,7E0,3E0,7E0,3E0,1E0,2E0,4E0,1E0,2E0,1E0,1E0,2E0,1E0,4E0,3E0,1E0,2E0,1E0,1E0,1E0,3E0],"tree_param":{"num_deleted":"0","num_feature":"9","num_nodes":"45","size_leaf_vector":"1"}},{"base_weights":[-8.114958E-2,-9.08933E-1,2.1450663E0,-9.1730826E-2,-6.940473E-1,1.2106108E-1,1.3257686E0,-1.1253991E0,-3.3845803E-1,3.0056763E-1,8.378678E-2,-1.2825987E0,-4.287203E-1,-9.5690984E-1,8.866928E-3,3.3991743E-2,-1.144917E-2,-1.5148462E0,-6.8175316E-1,4.7113657E-2,-5.83014E-2,-5.6521654E-1,-6.526112E-2,3.843366E-1,-3.6758792E-1,-2.8614331E-2,-9.1852255E-2,-1.1898386E-2,-5.2310802E-2,1.751635E-2,-8.536657E-3,-3.6558867E-2,-7.776499E-3,3.141704E-2,-1.5655931E-2,-3.603119E-2,1.2693143E-2],"categories":[],"categories_nodes":[],"categories_segments":[],"categories_sizes":[],"default_left":[0,0,0,0,0,0,0,0,0,0,0,0,0,0,0,0,0,0,0,0,0,0,0,0,0,0,0,0,0,0,0,0,0,0,0,0,0],"id":3,"left_children":[1,3,5,-1,7,-1,9,11,13,15,-1,17,19,21,23,-1,-1,25,27,29,-1,31,-1,33,35,-1,-1,-1,-1,-1,-1,-1,-1,-1,-1,-1,-1],"loss_changes":[1.2910461E2,8.871418E0,1.0888367E0,0E0,6.214613E0,0E0,2.0078325E0,1.5309601E0,5.378578E0,7.581949E-1,0E0,1.0604229E0,1.8091161E0,4.9015236E-1,2.5441828E0,0E0,0E0,1.9855995E0,7.214942E-1,3.2402864E-1,0E0,2.942313E-1,0E0,1.728383E0,2.1574893E0,0E0,0E0,0E0,0E0,0E0,0E0,0E0,0E0,0E0,0E0,0E0,0E0],"parents":[2147483647,0,0,1,1,2,2,4,4,6,6,7,7,8,8,9,9,11,11,12,12,13,13,14,14,17,17,18,18,19,19,21,21,23,23,24,24],"right_children":[2,4,6,-1,8,-1,10,12,14,16,-1,18,20,22,24,-1,-1,26,28,30,-1,32,-1,34,36,-1,-1,-1,-1,-1,-1,-1,-1,-1,-1,-1,-1],"split_conditions":[5E0,8.81E0,1.399E1,-9.1730826E-2,2E0,1.2106108E-1,1.494E1,1.08E1,9.85E0,1.446E1,8.378678E-2,1.297E1,1.361E1,9.66E0,1.091E1,3.3991743E-2,-1.144917E-2,1.054E1,1.2E1,1E0,-5.83014E-2,9.2E0,-6.526112E-2,1.185E1,1.13E1,-2.8614331E-2,-9.1852255E-2,-1.1898386E-2,-5.2310802E-2,1.751635E-2,-8.536657E-3,-3.6558867E-2,-7.776499E-3,3.141704E-2,-1.5655931E-2,-3.603119E-2,1.2693143E-2],"split_indices":[0,6,6,0,0,0,6,7,6,6,0,6,6,7,7,0,0,6,3,0,0,7,0,6,6,0,0,0,0,0,0,0,0,0,0,0,0],"split_type":[0,0,0,0,0,0,0,0,0,0,0,0,0,0,0,0,0,0,0,0,0,0,0,0,0,0,0,0,0,0,0,0,0,0,0,0,0],"sum_hessian":[6.8E1,5E1,1.8E1,8E0,4.2E1,1.2E1,6E0,1.8E1,2.4E1,2E0,4E0,1.4E1,4E0,8E0,1.6E1,1E0,1E0,9E0,5E0,3E0,1E0,5E0,3E0,8E0,8E0,3E0,6E0,3E0,2E0,1E0,2E0,3E0,2E0,6E0,2E0,5E0,3E0],"tree_param":{"num_deleted":"0","num_feature":"9","num_nodes":"37","size_leaf_vector":"1"}},{"base_weights":[5.8115413E-3,-8.220195E-1,1.9765611E0,-1.4335876E0,-9.975461E-2,1.2004449E-1,1.4582404E0,-1.6329099E0,-4.638079E-1,-3.087115E-1,2.2365618E-1,2.3227763E-1,9.20543E-2,-9.258207E-1,-1.7386063E0,-6.777536E-1,1.514802E-2,-8.374317E-1,-4.0319443E-2,3.4092285E-2,-3.7090245E-1,4.5854282E-1,-1.1162949E-2,-1.9441128E-1,-6.743117E-2,-9.1609344E-2,-3.6934377E-3,-7.713671E-1,-7.582498E-3,-4.8433006E-2,-7.812954E-3,-4.7242188E-1,1.8077171E-1,-2.1294118E-3,-4.4233394E-1,2.8509855E-2,5.8808564E-3,-1.4485669E-2,-9.51767E-5,-1.0911226E-2,-4.415032E-2,-5.178928E-4,-3.114953E-2,1.4052145E-2,-1.3028169E-2,-2.7057696E-2,-3.6468506E-3],"categories":[],"categories_nodes":[],"categories_segments":[],"categories_sizes":[],"default_left":[0,0,0,0,0,0,0,0,0,0,0,0,0,0,0,0,0,0,0,0,0,0,0,0,0,0,0,0,0,0,0,0,0,0,0,0,0,0,0,0,0,0,0,0,0,0,0],"id":4,"left_children":[1,3,5,7,9,-1,11,13,15,17,19,21,-1,23,25,27,-1,29,31,-1,33,35,-1,37,-1,-1,-1,39,-1,-1,-1,41,43,-1,45,-1,-1,-1,-1,-1,-1,-1,-1,-1,-1,-1,-1],"loss_changes":[1.158261E2,2.1942696E1,1.1176376E0,4.461712E0,1.6909392E0,0E0,5.204611E0,3.4568787E-2,1.1896133E0,2.0948E0,2.9771032E0,5.146621E-1,0E0,1.2840214E0,2.668827E0,1.2927413E-1,0E0,2.9558396E-1,1.1362748E0,0E0,9.842163E-2,4.7132492E-2,0E0,5.4487698E-2,0E0,0E0,0E0,5.4316282E-2,0E0,0E0,0E0,2.7183664E-1,4.272551E-1,0E0,1.0654503E-1,0E0,0E0,0E0,0E0,0E0,0E0,0E0,0E0,0E0,0E0,0E0,0E0],"parents":[2147483647,0,0,1,1,2,2,3,3,4,4,6,6,7,7,8,8,9,9,10,10,11,11,13,13,14,14,15,15,17,17,18,18,20,20,21,21,23,23,27,27,31,31,32,32,34,34],"right_children":[2,4,6,8,10,-1,12,14,16,18,20,22,-1,24,26,28,-1,30,32,-1,34,36,-1,38,-1,-1,-1,40,-1,-1,-1,42,44,-1,46,-1,-1,-1,-1,-1,-1,-1,-1,-1,-1,-1,-1],"split_conditions":[5E0,1.9E1,6E0,4E0,1.057E1,1.2004449E-1,1.2E1,8.41E0,1.3E1,2.1E1,1.174E1,8E0,9.20543E-2,1E0,1.8E1,1E1,1.514802E-2,3E0,1E0,3.4092285E-2,2E0,5E0,-1.1162949E-2,1.3E1,-6.743117E-2,-9.1609344E-2,-3.6934377E-3,3E0,-7.582498E-3,-4.8433006E-2,-7.812954E-3,1.1E1,9.5E0,-2.1294118E-3,1.206E1,2.8509855E-2,5.8808564E-3,-1.4485669E-2,-9.51767E-5,-1.0911226E-2,-4.415032E-2,-5.178928E-4,-3.114953E-2,1.4052145E-2,-1.3028169E-2,-2.7057696E-2,-3.6468506E-3],"split_indices":[0,2,0,0,7,0,2,7,2,2,7,2,0,0,2,2,0,0,0,0,0,2,0,2,0,0,0,2,0,0,0,3,7,0,7,0,0,0,0,0,0,0,0,0,0,0,0],"split_type":[0,0,0,0,0,0,0,0,0,0,0,0,0,0,0,0,0,0,0,0,0,0,0,0,0,0,0,0,0,0,0,0,0,0,0,0,0,0,0,0,0,0,0,0,0,0,0],"sum_hessian":[6.9E1,4.9E1,2E1,2.6E1,2.3E1,9E0,1.1E1,2.1E1,5E0,1.4E1,9E0,3E0,8E0,4E0,1.7E1,4E0,1E0,4E0,1E1,5E0,4E0,2E0,1E0,2E0,2E0,1.6E1,1E0,3E0,1E0,3E0,1E0,3E0,7E0,1E0,3E0,1E0,1E0,1E0,1E0,1E0,2E0,1E0,2E0,6E0,1E0,2E0,1E0],"tree_param":{"num_deleted":"0","num_feature":"9","num_nodes":"47","size_leaf_vector":"1"}},{"base_weights":[5.1594634E-2,-8.0495435E-1,1.9570175E0,-1.3847197E0,-8.9362144E-2,2.290097E0,1.0878667E0,-1.5575372E0,-3.128155E-1,-5.024605E-2,-2.0676092E-3,4.9629785E-2,1.2066795E-1,-6.866741E-2,7.424113E-2,-1.6277536E0,-5.4684323E-1,-5.387125E-1,1.4769316E-2,1.0863108E-1,-4.0016937E-1,5.733824E-3,-1.088388E-2,-7.4667E-1,-8.665597E-2,-4.0920448E-2,-9.2792514E-5,-3.5839867E-2,-1.2020922E-2,2.678557E-1,-3.589241E-1,-3.312366E-2,1.6226148E-2,-5.4553654E-2,-1.3408899E-2,2.3920585E-3,3.2715686E-2,-2.076173E-3,-2.139467E-2],"categories":[],"categories_nodes":[],"categories_segments":[],"categories_sizes":[],"default_left":[0,0,0,0,0,0,0,0,0,0,0,0,0,0,0,0,0,0,0,0,0,0,0,0,0,0,0,0,0,0,0,0,0,0,0,0,0,0,0],"id":5,"left_children":[1,3,5,7,9,11,13,15,17,-1,19,-1,-1,21,-1,23,25,27,-1,29,31,-1,-1,33,-1,-1,-1,-1,-1,35,37,-1,-1,-1,-1,-1,-1,-1,-1],"loss_changes":[1.1582148E2,2.0205164E1,3.877594E0,4.5143623E0,1.8361576E0,3.501892E-3,3.774703E0,7.4211884E-1,8.460833E-1,0E0,1.0129964E0,0E0,0E0,1.0692282E-1,0E0,6.554909E-1,4.4248086E-1,4.0155172E-2,0E0,1.4361732E0,1.1654357E0,0E0,0E0,3.6657476E-1,0E0,0E0,0E0,0E0,0E0,1.1590661E0,9.1686845E-2,0E0,0E0,0E0,0E0,0E0,0E0,0E0,0E0],"parents":[2147483647,0,0,1,1,2,2,3,3,4,4,5,5,6,6,7,7,8,8,10,10,13,13,15,15,16,16,17,17,19,19,20,20,23,23,29,29,30,30],"right_children":[2,4,6,8,10,12,14,16,18,-1,20,-1,-1,22,-1,24,26,28,-1,30,32,-1,-1,34,-1,-1,-1,-1,-1,36,38,-1,-1,-1,-1,-1,-1,-1,-1],"split_conditions":[5E0,1.9E1,1.399E1,4E0,8.21E0,5E0,1.2E1,1.37E1,1.3E1,-5.024605E-2,1.306E1,4.9629785E-2,1.2066795E-1,8E0,7.424113E-2,3E0,1.6E1,9.2E0,1.4769316E-2,1.174E1,1.057E1,5.733824E-3,-1.088388E-2,1E0,-8.665597E-2,-4.0920448E-2,-9.2792514E-5,-3.5839867E-2,-1.2020922E-2,1.054E1,2E0,-3.312366E-2,1.6226148E-2,-5.4553654E-2,-1.3408899E-2,2.3920585E-3,3.2715686E-2,-2.076173E-3,-2.139467E-2],"split_indices":[0,2,6,0,6,2,2,6,2,0,6,0,0,2,0,2,2,6,0,7,7,0,0,0,0,0,0,0,0,7,0,0,0,0,0,0,0,0,0],"split_type":[0,0,0,0,0,0,0,0,0,0,0,0,0,0,0,0,0,0,0,0,0,0,0,0,0,0,0,0,0,0,0,0,0,0,0,0,0,0,0],"sum_hessian":[6.9E1,4.8E1,2.1E1,2.6E1,2.2E1,1.4E1,7E0,2.2E1,4E0,1E0,2.1E1,2E0,1.2E1,2E0,5E0,2E1,2E0,3E0,1E0,1.7E1,4E0,1E0,1E0,3E0,1.7E1,1E0,1E0,1E0,2E0,1.3E1,4E0,3E0,1E0,1E0,2E0,9E0,4E0,1E0,3E0],"tree_param":{"num_deleted":"0","num_feature":"9","num_nodes":"39","size_leaf_vector":"1"}},{"base_weights":[-7.36186E-2,-8.1844693E-1,9.997195E-2,-1.3817198E0,-9.713882E-2,-1.7241809E0,-7.8142315E-1,-4.8989892E-2,-1.2481689E-2,-9.2371866E-2,-5.331723E-1,-9.895693E-1,1.7287159E-1,-1.7148092E-1,2.3623732E-1,-3.9897442E-2,-9.047985E-5,-1.4771684E-2,-1.126174E0,-1.4347077E-3,1.4400077E-2,1.36170825E-2,-3.188151E-2,3.1446043E-2,-4.1184735E-1,-6.548546E-2,-1.9185608E-2,-1.9762786E-2,7.41975E-3,-2.5442615E-2,-3.0208111E-3],"categories":[],"categories_nodes":[],"categories_segments":[],"categories_sizes":[],"default_left":[0,0,0,0,0,0,0,0,0,0,0,0,0,0,0,0,0,0,0,0,0,0,0,0,0,0,0,0,0,0,0],"id":6,"left_children":[1,3,-1,5,7,9,11,-1,13,-1,15,17,19,21,23,-1,-1,-1,25,-1,-1,27,-1,-1,29,-1,-1,-1,-1,-1,-1],"loss_changes":[1.0508927E2,2.0180443E1,0E0,4.4088783E0,1.7064081E0,1.5105858E0,2.5546613E0,0E0,9.105251E-1,0E0,4.2063314E-1,6.155119E-1,7.788272E-2,1.216649E0,2.5494492E0,0E0,0E0,0E0,5.875912E-1,0E0,0E0,6.648313E-1,0E0,0E0,1.0561931E-1,0E0,0E0,0E0,0E0,0E0,0E0],"parents":[2147483647,0,0,1,1,3,3,4,4,5,5,6,6,8,8,10,10,11,11,12,12,13,13,14,14,18,18,21,21,24,24],"right_children":[2,4,-1,6,8,10,12,-1,14,-1,16,18,20,22,24,-1,-1,-1,26,-1,-1,28,-1,-1,30,-1,-1,-1,-1,-1,-1],"split_conditions":[5E0,1.9E1,9.997195E-2,3E0,8.21E0,1.37E1,1.6E1,-4.8989892E-2,1.057E1,-9.2371866E-2,1.6E1,3E0,4E0,1.306E1,1.174E1,-3.9897442E-2,-9.047985E-5,-1.4771684E-2,1.2E1,-1.4347077E-3,1.4400077E-2,2.1E1,-3.188151E-2,3.1446043E-2,1.13E1,-6.548546E-2,-1.9185608E-2,-1.9762786E-2,7.41975E-3,-2.5442615E-2,-3.0208111E-3],"split_indices":[0,2,0,0,6,6,2,0,7,0,2,2,0,6,7,0,0,0,2,0,0,2,0,0,6,0,0,0,0,0,0],"split_type":[0,0,0,0,0,0,0,0,0,0,0,0,0,0,0,0,0,0,0,0,0,0,0,0,0,0,0,0,0,0,0],"sum_hessian":[6.6E1,4.9E1,1.7E1,2.7E1,2.2E1,1.6E1,1.1E1,1E0,2.1E1,1.4E1,2E0,9E0,2E0,1.3E1,8E0,1E0,1E0,2E0,7E0,1E0,1E0,1E1,3E0,5E0,3E0,5E0,2E0,2E0,8E0,2E0,1E0],"tree_param":{"num_deleted":"0","num_feature":"9","num_nodes":"31","size_leaf_vector":"1"}},{"base_weights":[5.3361602E-2,-7.3413056E-1,1.813303E0,-1.389947E0,-1.01414226E-1,1.0872245E-1,9.546348E-1,-1.5235504E0,-6.0426486E-1,-6.56778E-1,3.5644487E-2,-1.3359833E-1,6.698228E-2,-6.7644835E-1,-8.2005195E-2,-3.9301142E-2,-1.1054262E-2,-4.9010023E-2,-1.14429474E-1,3.7692097E-1,-1.2599418E-1,3.0911923E-3,-1.3111067E-2,-5.0880503E-2,-1.117622E-2,-1.3988495E-3,-7.1833613E-3,3.3272136E-2,-5.831003E-3,-5.018196E-1,5.6289587E-2,-1.0228825E-2,1.4760137E-2,-8.8214874E-5,-3.131962E-2,1.1132622E-2,-2.3078108E-2],"categories":[],"categories_nodes":[],"categories_segments":[],"categories_sizes":[],"default_left":[0,0,0,0,0,0,0,0,0,0,0,0,0,0,0,0,0,0,0,0,0,0,0,0,0,0,0,0,0,0,0,0,0,0,0,0,0],"id":7,"left_children":[1,3,5,7,9,-1,11,13,15,17,19,21,-1,23,-1,-1,-1,-1,25,27,29,-1,-1,-1,-1,-1,-1,-1,31,33,35,-1,-1,-1,-1,-1,-1],"loss_changes":[9.418918E1,1.9361492E1,4.4363937E0,1.493679E0,1.9263465E0,0E0,3.5308266E0,7.664757E-1,1.7445159E-1,7.648747E-1,1.2059228E0,9.1618896E-2,0E0,3.9062047E-1,0E0,0E0,0E0,0E0,3.56365E-3,7.769061E-1,1.0558504E0,0E0,0E0,0E0,0E0,0E0,0E0,0E0,2.9970792E-1,3.1036115E-1,1.0504321E0,0E0,0E0,0E0,0E0,0E0,0E0],"parents":[2147483647,0,0,1,1,2,2,3,3,4,4,6,6,7,7,8,8,9,9,10,10,11,11,13,13,18,18,19,19,20,20,28,28,29,29,30,30],"right_children":[2,4,6,8,10,-1,12,14,16,18,20,22,-1,24,-1,-1,-1,-1,26,28,30,-1,-1,-1,-1,-1,-1,-1,32,34,36,-1,-1,-1,-1,-1,-1],"split_conditions":[5E0,1.6E1,1.399E1,4E0,9.36E0,1.0872245E-1,1.2E1,3E0,9.2E0,3E0,1.119E1,8E0,6.698228E-2,1E0,-8.2005195E-2,-3.9301142E-2,-1.1054262E-2,-4.9010023E-2,1.9E1,2.2E1,2.3E1,3.0911923E-3,-1.3111067E-2,-5.0880503E-2,-1.117622E-2,-1.3988495E-3,-7.1833613E-3,3.3272136E-2,1.08E1,1.8E1,2.9E1,-1.0228825E-2,1.4760137E-2,-8.8214874E-5,-3.131962E-2,1.1132622E-2,-2.3078108E-2],"split_indices":[0,2,6,0,6,0,2,2,6,0,6,2,0,0,0,0,0,0,2,2,2,0,0,0,0,0,0,0,6,2,2,0,0,0,0,0,0],"split_type":[0,0,0,0,0,0,0,0,0,0,0,0,0,0,0,0,0,0,0,0,0,0,0,0,0,0,0,0,0,0,0,0,0,0,0,0,0],"sum_hessian":[6.6E1,4.6E1,2E1,2.2E1,2.4E1,1.3E1,7E0,1.8E1,4E0,4E0,2E1,2E0,5E0,3E0,1.5E1,2E0,2E0,2E0,2E0,6E0,1.4E1,1E0,1E0,1E0,2E0,1E0,1E0,3E0,3E0,4E0,1E1,2E0,1E0,1E0,3E0,8E0,2E0],"tree_param":{"num_deleted":"0","num_feature":"9","num_nodes":"37","size_leaf_vector":"1"}},{"base_weights":[-8.724276E-2,-7.774992E-1,1.5737348E0,-1.2545141E0,-1.567309E-1,1.9146531E0,6.670791E-1,-1.5053831E0,-6.774985E-1,-3.067444E-1,2.9442915E-1,4.1018963E-2,1.0143335E-1,-1.3025825E-1,5.060328E-2,-8.006082E-2,-4.9247804E-1,-9.0609515E-1,1.579253E-1,-7.561642E-1,-1.1029493E-1,6.1087275E-1,-2.256387E-1,3.0139207E-3,-1.2783289E-2,-3.6849856E-2,-8.5997584E-5,-1.0381761E0,-1.699508E-2,-1.3638735E-3,1.320827E-2,-4.375837E-2,-7.003784E-3,1.60192E-2,-2.17726E-1,4.576731E-3,3.7673697E-2,-1.3699317E-2,-3.2235861E-3,-1.1170912E-2,-5.7822198E-2,-2.7745247E-2,-4.0570633E-3],"categories":[],"categories_nodes":[],"categories_segments":[],"categories_sizes":[],"default_left":[0,0,0,0,0,0,0,0,0,0,0,0,0,0,0,0,0,0,0,0,0,0,0,0,0,0,0,0,0,0,0,0,0,0,0,0,0,0,0,0,0,0,0],"id":8,"left_children":[1,3,5,7,9,11,13,15,17,19,21,-1,-1,23,-1,-1,25,27,29,31,33,35,37,-1,-1,-1,-1,39,-1,-1,-1,-1,-1,-1,41,-1,-1,-1,-1,-1,-1,-1,-1],"loss_changes":[7.803911E1,1.4016932E1,4.904682E0,2.8885002E0,1.5792766E0,8.239746E-2,2.0573244E0,9.5869446E-1,2.052846E0,1.4174998E0,1.1252694E0,0E0,0E0,8.709532E-2,0E0,0E0,3.5873163E-1,2.4538898E-1,6.623365E-2,2.439928E-1,6.712439E-1,2.2726393E-1,5.711749E-3,0E0,0E0,0E0,0E0,3.197875E-1,0E0,0E0,0E0,0E0,0E0,0E0,4.6156287E-1,0E0,0E0,0E0,0E0,0E0,0E0,0E0,0E0],"parents":[2147483647,0,0,1,1,2,2,3,3,4,4,5,5,6,6,7,7,8,8,9,9,10,10,13,13,16,16,17,17,18,18,19,19,20,20,21,21,22,22,27,27,34,34],"right_children":[2,4,6,8,10,12,14,16,18,20,22,-1,-1,24,-1,-1,26,28,30,32,34,36,38,-1,-1,-1,-1,40,-1,-1,-1,-1,-1,-1,42,-1,-1,-1,-1,-1,-1,-1,-1],"split_conditions":[5E0,1.9E1,1.399E1,3E0,4E0,5E0,1.2E1,1.37E1,1.6E1,2.1E1,1.174E1,4.1018963E-2,1.0143335E-1,8E0,5.060328E-2,-8.006082E-2,1.6E1,1.2E1,4E0,3E0,1.029E1,1.088E1,2.4E1,3.0139207E-3,-1.2783289E-2,-3.6849856E-2,-8.5997584E-5,2E0,-1.699508E-2,-1.3638735E-3,1.320827E-2,-4.375837E-2,-7.003784E-3,1.60192E-2,2.3E1,4.576731E-3,3.7673697E-2,-1.3699317E-2,-3.2235861E-3,-1.1170912E-2,-5.7822198E-2,-2.7745247E-2,-4.0570633E-3],"split_indices":[0,2,6,0,0,2,2,6,2,2,7,0,0,2,0,0,2,2,0,0,6,6,2,0,0,0,0,2,0,0,0,0,0,0,2,0,0,0,0,0,0,0,0],"split_type":[0,0,0,0,0,0,0,0,0,0,0,0,0,0,0,0,0,0,0,0,0,0,0,0,0,0,0,0,0,0,0,0,0,0,0,0,0,0,0,0,0,0,0],"sum_hessian":[6.6E1,4.7E1,1.9E1,2.6E1,2.1E1,1.3E1,6E0,1.7E1,9E0,1.6E1,5E0,2E0,1.1E1,2E0,4E0,1.5E1,2E0,7E0,2E0,4E0,1.2E1,3E0,2E0,1E0,1E0,1E0,1E0,5E0,2E0,1E0,1E0,3E0,1E0,2E0,1E1,1E0,2E0,1E0,1E0,1E0,4E0,2E0,8E0],"tree_param":{"num_deleted":"0","num_feature":"9","num_nodes":"43","size_leaf_vector":"1"}},{"base_weights":[8.860461E-2,-6.4599216E-1,1.6205522E0,-1.1579944E0,1.8676894E-2,1.9055471E0,8.8361776E-1,-1.2786039E0,-3.957138E-1,-2.8980854E-1,1.6139165E-1,3.9651666E-2,2.0157006E0,-1.2700176E-1,6.2082894E-2,-1.3344394E0,-4.801661E-1,-6.2342286E-1,1.287806E-2,1.3827515E-2,-4.302934E-1,2.8984752E-1,-2.6432395E-1,1.0726165E-1,4.344241E-2,2.9385805E-3,-1.2463713E-2,-1.0641937E0,-9.661688E-2,-3.5928607E-2,-8.385182E-5,-8.246732E-3,-3.6063705E-2,-2.5446758E-2,-9.271145E-4,-6.1588448E-2,5.496716E-1,-2.7826945E-3,-2.2258354E-2,-9.283146E-3,-5.8821827E-2,-2.875948E-2,7.808485E-3,1.6626272E-2,3.6417898E-2],"categories":[],"categories_nodes":[],"categories_segments":[],"categories_sizes":[],"default_left":[0,0,0,0,0,0,0,0,0,0,0,0,0,0,0,0,0,0,0,0,0,0,0,0,0,0,0,0,0,0,0,0,0,0,0,0,0,0,0,0,0,0,0,0,0],"id":9,"left_children":[1,3,5,7,9,11,13,15,17,19,21,-1,23,25,-1,27,29,31,-1,-1,33,35,37,-1,-1,-1,-1,39,-1,-1,-1,-1,-1,-1,-1,41,43,-1,-1,-1,-1,-1,-1,-1,-1],"loss_changes":[7.644624E1,1.5675983E1,2.9367256E0,1.8844337E0,9.7130656E-1,2.3968506E-1,3.052432E0,3.4003067E-1,9.0435266E-1,6.7595154E-1,8.9689875E-1,0E0,6.732559E-2,8.279516E-2,0E0,1.1752052E0,3.4101892E-1,6.0491562E-2,0E0,0E0,1.8484819E-1,1.1295915E0,1.261709E-1,0E0,0E0,0E0,0E0,1.3593197E0,0E0,0E0,0E0,0E0,0E0,0E0,0E0,7.608722E-1,2.9409885E-2,0E0,0E0,0E0,0E0,0E0,0E0,0E0,0E0],"parents":[2147483647,0,0,1,1,2,2,3,3,4,4,5,5,6,6,7,7,8,8,9,9,10,10,12,12,13,13,15,15,16,16,17,17,20,20,21,21,22,22,27,27,35,35,36,36],"right_children":[2,4,6,8,10,12,14,16,18,20,22,-1,24,26,-1,28,30,32,-1,-1,34,36,38,-1,-1,-1,-1,40,-1,-1,-1,-1,-1,-1,-1,42,44,-1,-1,-1,-1,-1,-1,-1,-1],"split_conditions":[5E0,1.9E1,1.399E1,4E0,1.1E1,5E0,1.2E1,1.37E1,1E1,1.029E1,1.174E1,3.9651666E-2,2.8E1,8E0,6.2082894E-2,1.111E1,1.6E1,3E0,1.287806E-2,1.3827515E-2,2.4E1,9.35E0,3.1E1,1.0726165E-1,4.344241E-2,2.9385805E-3,-1.2463713E-2,3E0,-9.661688E-2,-3.5928607E-2,-8.385182E-5,-8.246732E-3,-3.6063705E-2,-2.5446758E-2,-9.271145E-4,1E0,4E0,-2.7826945E-3,-2.2258354E-2,-9.283146E-3,-5.8821827E-2,-2.875948E-2,7.808485E-3,1.6626272E-2,3.6417898E-2],"split_indices":[0,2,6,0,3,2,2,6,2,6,7,0,2,2,0,6,2,2,0,0,2,7,2,0,0,0,0,2,0,0,0,0,0,0,0,0,0,0,0,0,0,0,0,0,0],"split_type":[0,0,0,0,0,0,0,0,0,0,0,0,0,0,0,0,0,0,0,0,0,0,0,0,0,0,0,0,0,0,0,0,0,0,0,0,0,0,0,0,0,0,0,0,0],"sum_hessian":[6.6E1,4.5E1,2.1E1,2.5E1,2E1,1.4E1,7E0,2.1E1,4E0,6E0,1.4E1,2E0,1.2E1,2E0,5E0,1.9E1,2E0,3E0,1E0,1E0,5E0,1.1E1,3E0,1E1,2E0,1E0,1E0,1.5E1,4E0,1E0,1E0,1E0,2E0,4E0,1E0,5E0,6E0,2E0,1E0,2E0,1.3E1,1E0,4E0,4E0,2E0],"tree_param":{"num_deleted":"0","num_feature":"9","num_nodes":"45","size_leaf_vector":"1"}},{"base_weights":[-2.3495734E-2,-6.6785693E-1,1.5425003E0,-1.1271544E0,-5.9705567E-2,1.8229601E0,7.211577E-1,-1.271961E0,-3.6006865E-1,-4.5641135E-2,2.0564426E-2,3.8329937E-2,9.6325405E-2,-1.2382666E-1,5.4195847E-2,-1.3237535E0,-4.681619E-1,-5.3253114E-1,1.25561E-2,1.1837583E-1,-3.3566952E-1,2.8651238E-3,-1.2152123E-2,-6.720873E-1,-1.4312301E0,-3.503039E-2,-8.175373E-5,-3.4861565E-2,-9.516033E-3,2.4204025E-1,-3.749597E-1,-2.8200245E-2,1.44418E-2,-8.973709E-3,-4.7033563E-2,-8.763222E-2,-5.3368118E-2,5.615342E-3,2.8536523E-2,-2.294836E-2,-3.0734302E-3],"categories":[],"categories_nodes":[],"categories_segments":[],"categories_sizes":[],"default_left":[0,0,0,0,0,0,0,0,0,0,0,0,0,0,0,0,0,0,0,0,0,0,0,0,0,0,0,0,0,0,0,0,0,0,0,0,0,0,0,0,0],"id":10,"left_children":[1,3,5,7,9,11,13,15,17,-1,19,-1,-1,21,-1,23,25,27,-1,29,31,-1,-1,33,35,-1,-1,-1,-1,37,39,-1,-1,-1,-1,-1,-1,-1,-1,-1,-1],"loss_changes":[7.267393E1,1.4178141E1,3.522789E0,2.7633018E0,1.593805E0,1.6389847E-1,2.2798982E0,3.794098E-1,7.661751E-1,0E0,8.062975E-1,0E0,0E0,7.870731E-2,0E0,5.7894135E-1,3.241812E-1,1.4911306E-1,0E0,1.1889002E0,8.7588847E-1,0E0,0E0,4.9271393E-1,2.3443985E-1,0E0,0E0,0E0,0E0,5.755345E-1,7.713038E-2,0E0,0E0,0E0,0E0,0E0,0E0,0E0,0E0,0E0,0E0],"parents":[2147483647,0,0,1,1,2,2,3,3,4,4,5,5,6,6,7,7,8,8,10,10,13,13,15,15,16,16,17,17,19,19,20,20,23,23,24,24,29,29,30,30],"right_children":[2,4,6,8,10,12,14,16,18,-1,20,-1,-1,22,-1,24,26,28,-1,30,32,-1,-1,34,36,-1,-1,-1,-1,38,40,-1,-1,-1,-1,-1,-1,-1,-1,-1,-1],"split_conditions":[5E0,1.9E1,1.399E1,4E0,8.21E0,5E0,1.2E1,1.37E1,1.3E1,-4.5641135E-2,1.306E1,3.8329937E-2,9.6325405E-2,8E0,5.4195847E-2,4E0,1.6E1,9.2E0,1.25561E-2,1.185E1,1.057E1,2.8651238E-3,-1.2152123E-2,1.027E1,1E1,-3.503039E-2,-8.175373E-5,-3.4861565E-2,-9.516033E-3,4E0,1.13E1,-2.8200245E-2,1.44418E-2,-8.973709E-3,-4.7033563E-2,-8.763222E-2,-5.3368118E-2,5.615342E-3,2.8536523E-2,-2.294836E-2,-3.0734302E-3],"split_indices":[0,2,6,0,6,2,2,6,2,0,6,0,0,2,0,2,2,6,0,7,7,0,0,6,2,0,0,0,0,0,6,0,0,0,0,0,0,0,0,0,0],"split_type":[0,0,0,0,0,0,0,0,0,0,0,0,0,0,0,0,0,0,0,0,0,0,0,0,0,0,0,0,0,0,0,0,0,0,0,0,0,0,0,0,0],"sum_hessian":[7E1,5E1,2E1,2.8E1,2.2E1,1.4E1,6E0,2.3E1,5E0,1E0,2.1E1,2E0,1.2E1,2E0,4E0,2.1E1,2E0,4E0,1E0,1.7E1,4E0,1E0,1E0,4E0,1.7E1,1E0,1E0,2E0,2E0,1.4E1,3E0,3E0,1E0,2E0,2E0,7E0,1E1,1.1E1,3E0,2E0,1E0],"tree_param":{"num_deleted":"0","num_feature":"9","num_nodes":"41","size_leaf_vector":"1"}},{"base_weights":[-3.5716463E-2,-6.412221E-1,1.3890077E0,-1.0153931E0,-1.2961075E-1,8.481981E-2,5.758013E-1,-1.1514274E0,-3.4736887E-1,-4.616003E-1,6.935549E-2,-1.2073103E-1,4.3928023E-2,-1.1981014E0,-4.5645776E-1,-5.147802E-1,1.2242198E-2,-6.410729E-1,5.1211674E-2,2.2016777E-1,-3.6271715E-1,2.7935028E-3,-1.18483305E-2,-5.702758E-1,-6.3767426E-2,-3.415463E-2,-7.9703335E-5,-3.3699512E-2,-9.198841E-3,-4.6275165E-2,-4.814148E-2,1.4622903E-2,-1.0782028E-2,4.0742345E-2,3.425274E-2,-2.2183418E-2,-2.996588E-3,-4.4015717E-2,-8.674574E-3,-7.164288E-3,3.5536767E-3,-1.6237259E-2,6.351072E-3],"categories":[],"categories_nodes":[],"categories_segments":[],"categories_sizes":[],"default_left":[0,0,0,0,0,0,0,0,0,0,0,0,0,0,0,0,0,0,0,0,0,0,0,0,0,0,0,0,0,0,0,0,0,0,0,0,0,0,0,0,0,0,0],"id":11,"left_children":[1,3,5,7,9,-1,11,13,15,17,19,21,-1,23,25,27,-1,29,31,33,35,-1,-1,37,-1,-1,-1,-1,-1,-1,39,-1,-1,41,-1,-1,-1,-1,-1,-1,-1,-1,-1],"loss_changes":[5.7827446E1,8.865612E0,4.022621E0,2.0536308E0,1.4191633E0,0E0,1.5822401E0,1.667347E-1,7.2089964E-1,7.691159E-1,9.9212474E-1,7.482132E-2,0E0,2.426529E-1,3.0817497E-1,1.3933754E-1,0E0,9.673312E-1,2.561972E-1,8.8962734E-1,7.145351E-2,0E0,0E0,3.3934677E-1,0E0,0E0,0E0,0E0,0E0,0E0,4.42117E-2,0E0,0E0,3.2505497E-1,0E0,0E0,0E0,0E0,0E0,0E0,0E0,0E0,0E0],"parents":[2147483647,0,0,1,1,2,2,3,3,4,4,6,6,7,7,8,8,9,9,10,10,11,11,13,13,14,14,15,15,17,17,18,18,19,19,20,20,23,23,30,30,33,33],"right_children":[2,4,6,8,10,-1,12,14,16,18,20,22,-1,24,26,28,-1,30,32,34,36,-1,-1,38,-1,-1,-1,-1,-1,-1,40,-1,-1,42,-1,-1,-1,-1,-1,-1,-1,-1,-1],"split_conditions":[5E0,1.9E1,1.399E1,4E0,9.35E0,8.481981E-2,1.2E1,1.37E1,1.3E1,2.3E1,1.185E1,8E0,4.3928023E-2,3E0,1.6E1,9.2E0,1.2242198E-2,3E0,2E0,4E0,1.13E1,2.7935028E-3,-1.18483305E-2,1E0,-6.3767426E-2,-3.415463E-2,-7.9703335E-5,-3.3699512E-2,-9.198841E-3,-4.6275165E-2,4E0,1.4622903E-2,-1.0782028E-2,2E1,3.425274E-2,-2.2183418E-2,-2.996588E-3,-4.4015717E-2,-8.674574E-3,-7.164288E-3,3.5536767E-3,-1.6237259E-2,6.351072E-3],"split_indices":[0,2,6,0,7,0,2,6,2,2,7,2,0,2,2,6,0,0,0,0,6,0,0,0,0,0,0,0,0,0,0,0,0,2,0,0,0,0,0,0,0,0,0],"split_type":[0,0,0,0,0,0,0,0,0,0,0,0,0,0,0,0,0,0,0,0,0,0,0,0,0,0,0,0,0,0,0,0,0,0,0,0,0,0,0,0,0,0,0],"sum_hessian":[6.5E1,4.6E1,1.9E1,2.6E1,2E1,1.3E1,6E0,2.1E1,5E0,7E0,1.3E1,2E0,4E0,1.9E1,2E0,4E0,1E0,5E0,2E0,1E1,3E0,1E0,1E0,3E0,1.6E1,1E0,1E0,2E0,2E0,3E0,2E0,1E0,1E0,8E0,2E0,2E0,1E0,1E0,2E0,1E0,1E0,1E0,7E0],"tree_param":{"num_deleted":"0","num_feature":"9","num_nodes":"43","size_leaf_vector":"1"}},{"base_weights":[-3.3316396E-3,-6.087389E-1,1.419542E0,-9.9342954E-1,-8.514909E-2,1.6940634E0,6.6770744E-1,-1.1278154E0,-3.3510986E-1,-4.3343235E-2,-2.7200698E-3,3.422494E-2,1.8052826E0,-1.17712654E-1,5.0270904E-2,-1.425083E0,-7.613354E-1,-4.9762097E-1,1.193614E-2,1.2122687E-1,-2.6440728E-2,9.753012E-2,3.595613E-2,2.72367E-3,-1.155212E-2,-7.741009E-1,-8.432435E-2,-8.6267155E-1,-3.4299517E-1,-3.2576215E-2,-8.892203E-3,3.3190586E-2,4.582709E-2,-2.3597956E-3,-4.7201406E-2,-1.1612511E-2,-5.0480664E-2,-2.4912452E-2,3.0691624E-3,-1.7695349E-2,6.4105513E-3],"categories":[],"categories_nodes":[],"categories_segments":[],"categories_sizes":[],"default_left":[0,0,0,0,0,0,0,0,0,0,0,0,0,0,0,0,0,0,0,0,0,0,0,0,0,0,0,0,0,0,0,0,0,0,0,0,0,0,0,0,0],"id":12,"left_children":[1,3,5,7,9,11,13,15,17,-1,19,-1,21,23,-1,25,27,29,-1,31,-1,-1,-1,-1,-1,33,-1,35,37,-1,-1,-1,39,-1,-1,-1,-1,-1,-1,-1,-1],"loss_changes":[5.771772E1,9.382156E0,2.9967537E0,2.0107155E0,1.350799E0,3.362503E-1,1.9750631E0,1.3117714E0,6.783187E-1,0E0,1.3682626E0,0E0,4.9136353E-1,7.112706E-2,0E0,5.6635094E-1,2.1282434E-1,1.3020372E-1,0E0,6.6506267E-1,0E0,0E0,0E0,0E0,0E0,5.7305026E-1,0E0,5.992341E-1,2.817095E-1,0E0,0E0,0E0,5.7228136E-1,0E0,0E0,0E0,0E0,0E0,0E0,0E0,0E0],"parents":[2147483647,0,0,1,1,2,2,3,3,4,4,5,5,6,6,7,7,8,8,10,10,12,12,13,13,15,15,16,16,17,17,19,19,25,25,27,27,28,28,32,32],"right_children":[2,4,6,8,10,12,14,16,18,-1,20,-1,22,24,-1,26,28,30,-1,32,-1,-1,-1,-1,-1,34,-1,36,38,-1,-1,-1,40,-1,-1,-1,-1,-1,-1,-1,-1],"split_conditions":[5E0,1.9E1,1.399E1,4E0,8.21E0,5E0,1.2E1,1E1,1.3E1,-4.3343235E-2,1.306E1,3.422494E-2,2.8E1,8E0,5.0270904E-2,5E0,3E0,9.2E0,1.193614E-2,2E1,-2.6440728E-2,9.753012E-2,3.595613E-2,2.72367E-3,-1.155212E-2,8.99E0,-8.432435E-2,1.3E1,1.6E1,-3.2576215E-2,-8.892203E-3,3.3190586E-2,2.1E1,-2.3597956E-3,-4.7201406E-2,-1.1612511E-2,-5.0480664E-2,-2.4912452E-2,3.0691624E-3,-1.7695349E-2,6.4105513E-3],"split_indices":[0,2,6,0,6,2,2,2,2,0,6,0,2,2,0,2,0,6,0,2,0,0,0,0,0,6,0,2,2,0,0,0,2,0,0,0,0,0,0,0,0],"split_type":[0,0,0,0,0,0,0,0,0,0,0,0,0,0,0,0,0,0,0,0,0,0,0,0,0,0,0,0,0,0,0,0,0,0,0,0,0,0,0,0,0],"sum_hessian":[6.5E1,4.6E1,1.9E1,2.6E1,2E1,1.3E1,6E0,2.1E1,5E0,1E0,1.9E1,2E0,1.1E1,2E0,4E0,1E1,1.1E1,4E0,1E0,1.6E1,3E0,9E0,2E0,1E0,1E0,4E0,6E0,8E0,3E0,2E0,2E0,1E0,1.5E1,1E0,3E0,2E0,6E0,2E0,1E0,2E0,1.3E1],"tree_param":{"num_deleted":"0","num_feature":"9","num_nodes":"41","size_leaf_vector":"1"}},{"base_weights":[4.429214E-2,-5.160144E-1,1.3307825E0,-1.0068023E0,-9.9762E-2,1.6903256E0,8.022069E-1,-1.9488652E-1,-1.0820099E0,-3.1215858E-1,3.3611584E-1,8.809127E-2,2.4383212E-2,6.7801E-2,5.5363324E-2,-9.0692047E-4,-1.3709569E-2,-5.45557E-1,-1.2346319E0,-7.4914646E-1,-3.1235775E-2,-2.4578571E-3,5.0581235E-1,2.4057896E-1,-1.1263323E-2,-4.173529E-2,-3.207861E-1,-6.897134E-2,-5.277879E-1,-1.8647988E-1,-4.6845857E-2,2.0017502E-1,-2.9600906E-1,-4.733817E-2,3.304577E-3,2.0743592E-1,3.0157078E-2,1.5387845E-2,2.6555776E-3,-2.3008108E-3,-1.8898726E-2,-3.1490326E-2,-5.5433037E-3,1.1843204E-3,-1.51703125E-2,-8.330139E-3,1.9010333E-2,-1.3633728E-3,-1.7215196E-2,2.9924393E-3,-6.542802E-3,1.9402265E-3,1.3617468E-2],"categories":[],"categories_nodes":[],"categories_segments":[],"categories_sizes":[],"default_left":[0,0,0,0,0,0,0,0,0,0,0,0,0,0,0,0,0,0,0,0,0,0,0,0,0,0,0,0,0,0,0,0,0,0,0,0,0,0,0,0,0,0,0,0,0,0,0,0,0,0,0,0,0],"id":13,"left_children":[1,3,5,7,9,11,13,15,17,19,21,-1,-1,23,-1,-1,-1,25,27,29,31,33,35,37,-1,-1,39,-1,41,43,-1,45,47,49,-1,51,-1,-1,-1,-1,-1,-1,-1,-1,-1,-1,-1,-1,-1,-1,-1,-1,-1],"loss_changes":[4.754058E1,9.296975E0,2.4449234E0,1.0714397E0,2.5119746E0,8.671188E-2,2.1653013E0,3.7077554E-2,8.820534E-1,2.1862774E0,5.1833606E-1,0E0,0E0,2.5673676E-1,0E0,0E0,0E0,1.2219155E-1,7.0482063E-1,5.648496E-1,7.945103E-1,1.5434725E-2,4.9131274E-2,2.1435559E-2,0E0,0E0,6.1175287E-2,0E0,1.0031092E-1,8.090853E-2,0E0,5.255648E-1,6.848472E-2,3.4687653E-2,0E0,2.2270948E-2,0E0,0E0,0E0,0E0,0E0,0E0,0E0,0E0,0E0,0E0,0E0,0E0,0E0,0E0,0E0,0E0,0E0],"parents":[2147483647,0,0,1,1,2,2,3,3,4,4,5,5,6,6,7,7,8,8,9,9,10,10,13,13,17,17,18,18,19,19,20,20,21,21,22,22,23,23,26,26,28,28,29,29,31,31,32,32,33,33,35,35],"right_children":[2,4,6,8,10,12,14,16,18,20,22,-1,-1,24,-1,-1,-1,26,28,30,32,34,36,38,-1,-1,40,-1,42,44,-1,46,48,50,-1,52,-1,-1,-1,-1,-1,-1,-1,-1,-1,-1,-1,-1,-1,-1,-1,-1,-1],"split_conditions":[5E0,1.6E1,6E0,8.41E0,3E0,2.8E1,1.2E1,1E0,4E0,2.1E1,9.57E0,8.809127E-2,2.4383212E-2,8E0,5.5363324E-2,-9.0692047E-4,-1.3709569E-2,1E0,4E0,1E0,2.6E1,4E0,4E0,5E0,-1.1263323E-2,-4.173529E-2,2E0,-6.897134E-2,1E1,1.8E1,-4.6845857E-2,2.3E1,1.1E1,1.9E1,3.304577E-3,2.6E1,3.0157078E-2,1.5387845E-2,2.6555776E-3,-2.3008108E-3,-1.8898726E-2,-3.1490326E-2,-5.5433037E-3,1.1843204E-3,-1.51703125E-2,-8.330139E-3,1.9010333E-2,-1.3633728E-3,-1.7215196E-2,2.9924393E-3,-6.542802E-3,1.9402265E-3,1.3617468E-2],"split_indices":[0,2,0,7,0,2,2,0,2,2,7,0,0,2,0,0,0,0,0,0,2,0,0,2,0,0,0,0,2,2,0,2,3,2,0,2,0,0,0,0,0,0,0,0,0,0,0,0,0,0,0,0,0],"split_type":[0,0,0,0,0,0,0,0,0,0,0,0,0,0,0,0,0,0,0,0,0,0,0,0,0,0,0,0,0,0,0,0,0,0,0,0,0,0,0,0,0,0,0,0,0,0,0,0,0,0,0,0,0],"sum_hessian":[6.4E1,4.5E1,1.9E1,2E1,2.5E1,1E1,9E0,2E0,1.8E1,1.7E1,8E0,9E0,1E0,3E0,6E0,1E0,1E0,5E0,1.3E1,6E0,1.1E1,3E0,5E0,2E0,1E0,1E0,4E0,1E1,3E0,2E0,4E0,6E0,5E0,2E0,1E0,2E0,3E0,1E0,1E0,1E0,3E0,2E0,1E0,1E0,1E0,2E0,4E0,1E0,4E0,1E0,1E0,1E0,1E0],"tree_param":{"num_deleted":"0","num_feature":"9","num_nodes":"53","size_leaf_vector":"1"}},{"base_weights":[3.826952E-2,-5.65891E-1,1.2997748E0,-9.723461E-1,-3.571374E-2,1.5206672E0,7.2312963E-1,-1.2562987E0,-5.3637654E-1,-4.108851E-2,4.4677593E-2,3.1359483E-2,1.60988E0,-1.1190096E-1,5.1006168E-2,-1.3598531E0,-3.8879648E-1,-6.988576E-1,9.200955E-3,-2.553339E-1,1.9149208E-1,8.6012416E-2,3.3428464E-2,2.589178E-3,-1.0981751E-2,-8.446777E-1,-9.100558E-2,-3.0314445E-2,1.1547089E-3,-8.8784504E-1,-1.6615057E-2,1.3230658E-2,-3.8609394E-1,3.2368612E-1,-2.005574E-2,-2.2432804E-3,-4.7626358E-2,-4.792398E-2,-1.3366818E-2,-2.2633925E-2,-1.3292789E-3,1.8353038E-2,-3.8358688E-3],"categories":[],"categories_nodes":[],"categories_segments":[],"categories_sizes":[],"default_left":[0,0,0,0,0,0,0,0,0,0,0,0,0,0,0,0,0,0,0,0,0,0,0,0,0,0,0,0,0,0,0,0,0,0,0,0,0,0,0,0,0,0,0],"id":14,"left_children":[1,3,5,7,9,11,13,15,17,-1,19,-1,21,23,-1,25,27,29,-1,31,33,-1,-1,-1,-1,35,-1,-1,-1,37,-1,-1,39,41,-1,-1,-1,-1,-1,-1,-1,-1,-1],"loss_changes":[5.1799694E1,9.877963E0,1.7026405E0,2.5448132E0,1.3637494E0,1.8594742E-1,2.098144E0,8.188E-1,1.533211E0,0E0,9.2981505E-1,0E0,2.0047379E-1,6.427667E-2,0E0,1.5450726E0,2.8275108E-1,3.9771366E-1,0E0,5.780836E-1,1.2265828E0,0E0,0E0,0E0,0E0,6.473384E-1,0E0,0E0,0E0,6.7396164E-3,0E0,0E0,1.315915E-1,2.365681E-1,0E0,0E0,0E0,0E0,0E0,0E0,0E0,0E0,0E0],"parents":[2147483647,0,0,1,1,2,2,3,3,4,4,5,5,6,6,7,7,8,8,10,10,12,12,13,13,15,15,16,16,17,17,19,19,20,20,25,25,29,29,32,32,33,33],"right_children":[2,4,6,8,10,12,14,16,18,-1,20,-1,22,24,-1,26,28,30,-1,32,34,-1,-1,-1,-1,36,-1,-1,-1,38,-1,-1,40,42,-1,-1,-1,-1,-1,-1,-1,-1,-1],"split_conditions":[5E0,1.9E1,1.399E1,3E0,8.21E0,5E0,1.2E1,1.37E1,1.6E1,-4.108851E-2,1.1E1,3.1359483E-2,2.8E1,8E0,5.1006168E-2,9.36E0,1.6E1,9.54E0,9.200955E-3,1.029E1,2.9E1,8.6012416E-2,3.3428464E-2,2.589178E-3,-1.0981751E-2,3E0,-9.100558E-2,-3.0314445E-2,1.1547089E-3,1E1,-1.6615057E-2,1.3230658E-2,2.4E1,1.174E1,-2.005574E-2,-2.2432804E-3,-4.7626358E-2,-4.792398E-2,-1.3366818E-2,-2.2633925E-2,-1.3292789E-3,1.8353038E-2,-3.8358688E-3],"split_indices":[0,2,6,0,6,2,2,6,2,0,3,0,2,2,0,6,2,6,0,6,2,0,0,0,0,2,0,0,0,2,0,0,2,7,0,0,0,0,0,0,0,0,0],"split_type":[0,0,0,0,0,0,0,0,0,0,0,0,0,0,0,0,0,0,0,0,0,0,0,0,0,0,0,0,0,0,0,0,0,0,0,0,0,0,0,0,0,0,0],"sum_hessian":[6.6E1,4.5E1,2.1E1,2.5E1,2E1,1.4E1,7E0,1.4E1,1.1E1,1E0,1.9E1,2E0,1.2E1,2E0,5E0,1.2E1,2E0,9E0,2E0,6E0,1.3E1,1E1,2E0,1E0,1E0,7E0,5E0,1E0,1E0,5E0,4E0,1E0,5E0,1.1E1,2E0,1E0,6E0,4E0,1E0,4E0,1E0,1E1,1E0],"tree_param":{"num_deleted":"0","num_feature":"9","num_nodes":"43","size_leaf_vector":"1"}},{"base_weights":[2.6031025E-2,-5.444381E-1,1.2435774E0,-1.0962734E0,-1.3082583E-1,1.5475899E0,8.6126775E-1,-1.5522353E-1,-1.192211E0,-2.937804E-1,1.4772034E-1,8.625036E-2,4.0292896E-2,6.0364008E-2,1.1215285E0,1.3908864E-3,-1.30326515E-2,-5.926511E-1,-6.363065E-2,-6.9460064E-1,-3.548686E-2,2.7867889E-2,-5.238851E-3,2.2324817E-1,-1.0707212E-2,6.640344E-2,2.6566792E-2,-3.841677E-2,-2.7797794E-1,-1.7465846E-1,-4.3382294E-2,1.7669228E-1,-2.7711472E-1,-1.6628443E-1,1.8614022E-2,1.4219165E-2,2.5244474E-3,-2.1872043E-3,-1.8661141E-2,1.1258364E-3,-1.4225221E-2,-8.578857E-3,1.7515775E-2,-5.531955E-3,-2.033553E-2,-1.5145175E-2,-2.552805E-3],"categories":[],"categories_nodes":[],"categories_segments":[],"categories_sizes":[],"default_left":[0,0,0,0,0,0,0,0,0,0,0,0,0,0,0,0,0,0,0,0,0,0,0,0,0,0,0,0,0,0,0,0,0,0,0,0,0,0,0,0,0,0,0,0,0,0,0],"id":15,"left_children":[1,3,5,7,9,11,13,15,17,19,21,-1,-1,23,25,-1,-1,27,-1,29,31,-1,33,35,-1,-1,-1,-1,37,39,-1,41,43,45,-1,-1,-1,-1,-1,-1,-1,-1,-1,-1,-1,-1,-1],"loss_changes":[4.7907986E1,1.0584135E1,1.2241058E0,1.6205807E0,1.3143277E0,5.7447433E-2,2.4336262E0,6.514461E-2,1.1348724E-1,1.8388777E0,6.9215584E-1,0E0,0E0,2.2665946E-1,3.9143753E-1,0E0,0E0,7.552147E-3,0E0,4.7827268E-1,6.641847E-1,0E0,6.090847E-1,1.7326772E-2,0E0,0E0,0E0,0E0,5.0602436E-2,7.1382806E-2,0E0,4.8337966E-1,8.444926E-2,9.473166E-2,0E0,0E0,0E0,0E0,0E0,0E0,0E0,0E0,0E0,0E0,0E0,0E0,0E0],"parents":[2147483647,0,0,1,1,2,2,3,3,4,4,5,5,6,6,7,7,8,8,9,9,10,10,13,13,14,14,17,17,19,19,20,20,22,22,23,23,28,28,29,29,31,31,32,32,33,33],"right_children":[2,4,6,8,10,12,14,16,18,20,22,-1,-1,24,26,-1,-1,28,-1,30,32,-1,34,36,-1,-1,-1,-1,38,40,-1,42,44,46,-1,-1,-1,-1,-1,-1,-1,-1,-1,-1,-1,-1,-1],"split_conditions":[5E0,1.6E1,6E0,8.41E0,3E0,1.5E1,1.2E1,1E0,4E0,2.1E1,2E1,8.625036E-2,4.0292896E-2,8E0,1.361E1,1.3908864E-3,-1.30326515E-2,1E0,-6.363065E-2,1E0,2.6E1,2.7867889E-2,2.7E1,5E0,-1.0707212E-2,6.640344E-2,2.6566792E-2,-3.841677E-2,2E0,1.8E1,-4.3382294E-2,2.3E1,2E0,1.1E1,1.8614022E-2,1.4219165E-2,2.5244474E-3,-2.1872043E-3,-1.8661141E-2,1.1258364E-3,-1.4225221E-2,-8.578857E-3,1.7515775E-2,-5.531955E-3,-2.033553E-2,-1.5145175E-2,-2.552805E-3],"split_indices":[0,2,0,7,0,7,2,0,2,2,2,0,0,2,7,0,0,0,0,0,2,0,2,2,0,0,0,0,0,2,0,2,0,3,0,0,0,0,0,0,0,0,0,0,0,0,0],"split_type":[0,0,0,0,0,0,0,0,0,0,0,0,0,0,0,0,0,0,0,0,0,0,0,0,0,0,0,0,0,0,0,0,0,0,0,0,0,0,0,0,0,0,0,0,0,0,0],"sum_hessian":[6.7E1,4.6E1,2.1E1,1.9E1,2.7E1,1E1,1.1E1,2E0,1.7E1,1.7E1,1E1,7E0,3E0,3E0,8E0,1E0,1E0,3E0,1.4E1,6E0,1.1E1,2E0,8E0,2E0,1E0,5E0,3E0,1E0,2E0,2E0,4E0,6E0,5E0,6E0,2E0,1E0,1E0,1E0,1E0,1E0,1E0,2E0,4E0,3E0,2E0,2E0,4E0],"tree_param":{"num_deleted":"0","num_feature":"9","num_nodes":"47","size_leaf_vector":"1"}},{"base_weights":[-4.754834E-3,-5.156059E-1,1.1448979E0,-8.480318E-1,-5.7671975E-2,1.3544759E0,5.62185E-1,-1.082942E0,-2.8398567E-1,-3.897674E-2,2.1348953E-2,2.9405627E-2,1.4331938E0,-1.06376015E-1,4.254423E-2,-1.1511395E0,-3.582417E-1,-4.8297453E-1,8.549404E-2,3.0451346E-2,-4.513465E-2,7.683086E-2,3.0535921E-2,2.4613382E-3,-1.0439539E-2,-8.933277E-1,-7.698299E-2,-2.7965808E-2,1.0976791E-3,-9.119956E-3,-2.9383123E-2,-3.3985616E-3,1.5930621E-1,2.6363015E-2,-2.0570533E-2,1.3561249E-3,-4.8973534E-2,1.9908906E-3,9.957075E-3,-8.928339E-3,6.7873127E-3],"categories":[],"categories_nodes":[],"categories_segments":[],"categories_sizes":[],"default_left":[0,0,0,0,0,0,0,0,0,0,0,0,0,0,0,0,0,0,0,0,0,0,0,0,0,0,0,0,0,0,0,0,0,0,0,0,0,0,0,0,0],"id":16,"left_children":[1,3,5,7,9,11,13,15,17,-1,19,-1,21,23,-1,25,27,29,31,-1,33,-1,-1,-1,-1,35,-1,-1,-1,-1,-1,-1,37,39,-1,-1,-1,-1,-1,-1,-1],"loss_changes":[3.8177605E1,6.8014E0,1.6810093E0,3.1374664E0,1.1574876E0,1.6899109E-3,1.4416068E0,4.7722244E-1,7.029925E-1,0E0,7.6983625E-1,0E0,8.231735E-2,5.808616E-2,0E0,2.2722054E-1,2.4162164E-1,8.161068E-2,5.6138653E-2,0E0,4.822279E-1,0E0,0E0,0E0,0E0,9.780493E-1,0E0,0E0,0E0,0E0,0E0,0E0,6.3501894E-3,3.8289392E-1,0E0,0E0,0E0,0E0,0E0,0E0,0E0],"parents":[2147483647,0,0,1,1,2,2,3,3,4,4,5,5,6,6,7,7,8,8,10,10,12,12,13,13,15,15,16,16,17,17,18,18,20,20,25,25,32,32,33,33],"right_children":[2,4,6,8,10,12,14,16,18,-1,20,-1,22,24,-1,26,28,30,32,-1,34,-1,-1,-1,-1,36,-1,-1,-1,-1,-1,-1,38,40,-1,-1,-1,-1,-1,-1,-1],"split_conditions":[5E0,1.9E1,1.399E1,3E0,8.21E0,5E0,1.2E1,1.37E1,1.2E1,-3.897674E-2,2E1,2.9405627E-2,2.8E1,8E0,4.254423E-2,1.111E1,1.6E1,3E0,1.3E1,3.0451346E-2,1.185E1,7.683086E-2,3.0535921E-2,2.4613382E-3,-1.0439539E-2,1E0,-7.698299E-2,-2.7965808E-2,1.0976791E-3,-9.119956E-3,-2.9383123E-2,-3.3985616E-3,4E0,2.3E1,-2.0570533E-2,1.3561249E-3,-4.8973534E-2,1.9908906E-3,9.957075E-3,-8.928339E-3,6.7873127E-3],"split_indices":[0,2,6,0,6,2,2,6,2,0,2,0,2,2,0,6,2,2,2,0,7,0,0,0,0,0,0,0,0,0,0,0,0,2,0,0,0,0,0,0,0],"split_type":[0,0,0,0,0,0,0,0,0,0,0,0,0,0,0,0,0,0,0,0,0,0,0,0,0,0,0,0,0,0,0,0,0,0,0,0,0,0,0,0,0],"sum_hessian":[6.3E1,4.4E1,1.9E1,2.5E1,1.9E1,1.3E1,6E0,1.7E1,8E0,1E0,1.8E1,2E0,1.1E1,2E0,4E0,1.5E1,2E0,5E0,3E0,1E0,1.7E1,9E0,2E0,1E0,1E0,1.1E1,4E0,1E0,1E0,2E0,3E0,1E0,2E0,1.5E1,2E0,1E0,1E1,1E0,1E0,5E0,1E1],"tree_param":{"num_deleted":"0","num_feature":"9","num_nodes":"41","size_leaf_vector":"1"}},{"base_weights":[-5.655081E-2,-5.5897E-1,1.0767199E0,-9.6524817E-1,-9.034972E-2,6.343322E-2,5.3901374E-1,-1.0629064E0,-3.8156548E-1,-3.8002323E-2,-2.2266706E-2,-1.0371653E-1,4.0842455E-2,-1.1227928E0,-3.4928575E-1,-2.5742723E-2,-6.0544014E-3,2.9690051E-2,-8.276014E-2,2.3998022E-3,-1.0178543E-2,-7.1308844E-2,-7.3746794E-1,-2.726667E-2,1.0702371E-3,-1.9743359E-2,-3.2989144E-1,-7.4062347E-3,-4.331441E-2,-1.1925622E-2,6.063409E-3,-1.9884842E-2,-3.1618834E-3],"categories":[],"categories_nodes":[],"categories_segments":[],"categories_sizes":[],"default_left":[0,0,0,0,0,0,0,0,0,0,0,0,0,0,0,0,0,0,0,0,0,0,0,0,0,0,0,0,0,0,0,0,0],"id":17,"left_children":[1,3,5,7,9,-1,11,13,15,-1,17,19,-1,21,23,-1,-1,-1,25,-1,-1,-1,27,-1,-1,29,31,-1,-1,-1,-1,-1,-1],"loss_changes":[3.704198E1,8.480348E0,1.3803673E0,9.624672E-1,9.8616564E-1,0E0,1.3347335E0,4.625473E-1,1.11251056E-1,0E0,8.317722E-1,5.5218052E-2,0E0,1.0524673E0,2.2969165E-1,0E0,0E0,0E0,3.0495524E-1,0E0,0E0,0E0,6.3087416E-1,0E0,0E0,5.533564E-1,4.7172815E-2,0E0,0E0,0E0,0E0,0E0,0E0],"parents":[2147483647,0,0,1,1,2,2,3,3,4,4,6,6,7,7,8,8,10,10,11,11,13,13,14,14,18,18,22,22,25,25,26,26],"right_children":[2,4,6,8,10,-1,12,14,16,-1,18,20,-1,22,24,-1,-1,-1,26,-1,-1,-1,28,-1,-1,30,32,-1,-1,-1,-1,-1,-1],"split_conditions":[5E0,1.9E1,1.399E1,4E0,8.21E0,6.343322E-2,1.2E1,1.37E1,9.2E0,-3.8002323E-2,2E1,8E0,4.0842455E-2,1.2E1,1.6E1,-2.5742723E-2,-6.0544014E-3,2.9690051E-2,1.185E1,2.3998022E-3,-1.0178543E-2,-7.1308844E-2,8.99E0,-2.726667E-2,1.0702371E-3,2.3E1,1.13E1,-7.4062347E-3,-4.331441E-2,-1.1925622E-2,6.063409E-3,-1.9884842E-2,-3.1618834E-3],"split_indices":[0,2,6,0,6,0,2,6,6,0,2,2,0,3,2,0,0,0,7,0,0,0,6,0,0,2,6,0,0,0,0,0,0],"split_type":[0,0,0,0,0,0,0,0,0,0,0,0,0,0,0,0,0,0,0,0,0,0,0,0,0,0,0,0,0,0,0,0,0],"sum_hessian":[6.3E1,4.4E1,1.9E1,2.3E1,2.1E1,1.3E1,6E0,1.9E1,4E0,1E0,2E1,2E0,4E0,1.7E1,2E0,2E0,2E0,1E0,1.9E1,1E0,1E0,8E0,9E0,1E0,1E0,1.6E1,3E0,2E0,7E0,6E0,1E1,2E0,1E0],"tree_param":{"num_deleted":"0","num_feature":"9","num_nodes":"33","size_leaf_vector":"1"}},{"base_weights":[5.441995E-2,-4.074893E-1,1.0909948E0,-1.0534568E0,-2.6077276E-1,6.36866E-2,4.52319E-1,-5.595965E-2,-1.4832593E-2,-3.7721837E-1,2.230506E-1,-9.924078E-3,3.110877E-2,8.239479E-2,-4.4836086E-1,3.5431482E-2,4.0181184E-1,-6.945864E-2,2.067833E-1,-1.0031506E0,-2.7667454E-1,1.0045576E-1,-5.616641E-3,2.8842688E-2,-3.0828477E-3,1.0434866E-3,-6.252885E-3,3.1049491E-3,1.2403798E-2,-5.5799484E-2,-1.0973883E-2,-9.6876884E-4,-2.1115934E-2,8.805196E-3,-3.162217E-3],"categories":[],"categories_nodes":[],"categories_segments":[],"categories_sizes":[],"default_left":[0,0,0,0,0,0,0,0,0,0,0,0,0,0,0,0,0,0,0,0,0,0,0,0,0,0,0,0,0,0,0,0,0,0,0],"id":18,"left_children":[1,3,5,7,9,-1,11,-1,-1,13,15,-1,-1,17,19,21,23,25,27,29,31,33,-1,-1,-1,-1,-1,-1,-1,-1,-1,-1,-1,-1,-1],"loss_changes":[3.1087996E1,3.9901228E0,1.7580643E0,6.598377E-2,2.225025E0,0E0,7.8674626E-1,0E0,0E0,1.0505815E0,2.5407544E-1,0E0,0E0,1.08807005E-1,2.294199E0,5.9325814E-2,3.600729E-1,1.767644E-2,2.5179386E-3,2.8563833E-1,8.162478E-1,6.067202E-2,0E0,0E0,0E0,0E0,0E0,0E0,0E0,0E0,0E0,0E0,0E0,0E0,0E0],"parents":[2147483647,0,0,1,1,2,2,3,3,4,4,6,6,9,9,10,10,13,13,14,14,15,15,16,16,17,17,18,18,19,19,20,20,21,21],"right_children":[2,4,6,8,10,-1,12,-1,-1,14,16,-1,-1,18,20,22,24,26,28,30,32,34,-1,-1,-1,-1,-1,-1,-1,-1,-1,-1,-1,-1,-1],"split_conditions":[5E0,8.81E0,1.399E1,4E0,4E0,6.36866E-2,1.306E1,-5.595965E-2,-1.4832593E-2,8.21E0,1.088E1,-9.924078E-3,3.110877E-2,7.35E0,8.99E0,9.92E0,1.174E1,1E0,1E0,2E0,1.2E1,1.2E1,-5.616641E-3,2.8842688E-2,-3.0828477E-3,1.0434866E-3,-6.252885E-3,3.1049491E-3,1.2403798E-2,-5.5799484E-2,-1.0973883E-2,-9.6876884E-4,-2.1115934E-2,8.805196E-3,-3.162217E-3],"split_indices":[0,6,6,0,0,0,7,0,0,7,6,0,0,7,7,7,7,0,0,0,3,3,0,0,0,0,0,0,0,0,0,0,0,0,0],"split_type":[0,0,0,0,0,0,0,0,0,0,0,0,0,0,0,0,0,0,0,0,0,0,0,0,0,0,0,0,0,0,0,0,0,0,0],"sum_hessian":[6.3E1,4.4E1,1.9E1,7E0,3.7E1,1.4E1,5E0,6E0,1E0,3E1,7E0,1E0,4E0,4E0,2.6E1,4E0,3E0,2E0,2E0,5E0,2.1E1,3E0,1E0,2E0,1E0,1E0,1E0,1E0,1E0,4E0,1E0,8E0,1.3E1,2E0,1E0],"tree_param":{"num_deleted":"0","num_feature":"9","num_nodes":"35","size_leaf_vector":"1"}},{"base_weights":[6.726023E-2,-3.99012E-1,1.0632122E0,-6.180224E-1,3.6570728E-2,5.8535707E-1,1.2603284E0,-8.8584596E-1,-1.4246647E-1,-1.8168792E-1,1.2446427E-1,4.6093903E-2,1.8366575E-2,1.4163018E0,2.5815964E-2,-4.7656916E-2,-3.9521527E-1,-3.903067E-1,2.8257123E-1,8.188884E-3,-2.3329545E-2,2.2622013E-1,-1.3560247E-1,1.5350182E-1,-9.67598E-3,1.907506E-2,1.4816319E0,1.0174037E-3,-2.7025953E-2,-7.416805E-3,-4.462409E-1,-3.3929188E-2,2.524406E-2,2.9916656E-1,-8.933783E-3,-1.4419555E-4,-8.944035E-3,9.950543E-3,1.5620947E-3,7.788357E-2,1.9931888E-2,-2.6576722E-2,-9.188461E-3,3.5518648E-3,-6.096554E-3,1.6923357E-2,6.042163E-3],"categories":[],"categories_nodes":[],"categories_segments":[],"categories_sizes":[],"default_left":[0,0,0,0,0,0,0,0,0,0,0,0,0,0,0,0,0,0,0,0,0,0,0,0,0,0,0,0,0,0,0,0,0,0,0,0,0,0,0,0,0,0,0,0,0,0,0],"id":19,"left_children":[1,3,5,7,9,11,13,15,17,19,21,-1,23,25,-1,-1,27,29,31,-1,-1,33,35,37,-1,-1,39,-1,-1,-1,41,43,-1,45,-1,-1,-1,-1,-1,-1,-1,-1,-1,-1,-1,-1,-1],"loss_changes":[3.0609241E1,4.3154736E0,1.2403126E0,3.6947489E0,3.2955006E-1,1.5095019E0,8.933735E-1,2.5060368E-1,1.3743868E0,5.6853807E-1,3.482358E-1,0E0,1.4423877E-1,1.7839432E-1,0E0,0E0,2.5253028E-1,4.2081952E-2,3.689362E-1,0E0,0E0,3.1927508E-1,2.2459425E-2,1.0474317E-2,0E0,0E0,2.0255661E-1,0E0,0E0,0E0,3.664303E-2,3.63734E-2,0E0,1.5164256E-2,0E0,0E0,0E0,0E0,0E0,0E0,0E0,0E0,0E0,0E0,0E0,0E0,0E0],"parents":[2147483647,0,0,1,1,2,2,3,3,4,4,5,5,6,6,7,7,8,8,9,9,10,10,12,12,13,13,16,16,17,17,18,18,21,21,22,22,23,23,26,26,30,30,31,31,33,33],"right_children":[2,4,6,8,10,12,14,16,18,20,22,-1,24,26,-1,-1,28,30,32,-1,-1,34,36,38,-1,-1,40,-1,-1,-1,42,44,-1,46,-1,-1,-1,-1,-1,-1,-1,-1,-1,-1,-1,-1,-1],"split_conditions":[5E0,2.1E1,1.4E1,3E0,9.35E0,6E0,1.5E1,1.37E1,1.6E1,1.185E1,1.174E1,4.6093903E-2,8E0,7.35E0,2.5815964E-2,-4.7656916E-2,1.387E1,3E0,4E0,8.188884E-3,-2.3329545E-2,2.9E1,2E0,5E0,-9.67598E-3,1.907506E-2,2.9E1,1.0174037E-3,-2.7025953E-2,-7.416805E-3,1.2E1,1.9E1,2.524406E-2,1.2E1,-8.933783E-3,-1.4419555E-4,-8.944035E-3,9.950543E-3,1.5620947E-3,7.788357E-2,1.9931888E-2,-2.6576722E-2,-9.188461E-3,3.5518648E-3,-6.096554E-3,1.6923357E-2,6.042163E-3],"split_indices":[0,2,2,0,7,0,7,6,2,6,7,0,2,6,0,0,6,2,0,0,0,2,0,2,0,0,2,0,0,0,2,2,0,3,0,0,0,0,0,0,0,0,0,0,0,0,0],"split_type":[0,0,0,0,0,0,0,0,0,0,0,0,0,0,0,0,0,0,0,0,0,0,0,0,0,0,0,0,0,0,0,0,0,0,0,0,0,0,0,0,0,0,0,0,0,0,0],"sum_hessian":[6.4E1,4.4E1,2E1,2.9E1,1.5E1,7E0,1.3E1,1.8E1,1.1E1,4E0,1.1E1,4E0,3E0,1E1,3E0,1.5E1,3E0,7E0,4E0,2E0,2E0,8E0,3E0,2E0,1E0,1E0,9E0,1E0,2E0,2E0,5E0,2E0,2E0,7E0,1E0,1E0,2E0,1E0,1E0,8E0,1E0,3E0,2E0,1E0,1E0,5E0,2E0],"tree_param":{"num_deleted":"0","num_feature":"9","num_nodes":"47","size_leaf_vector":"1"}},{"base_weights":[8.780562E-3,-4.264039E-1,1.0237929E0,-6.158786E-1,4.4130642E-2,5.620805E-1,1.2145004E0,-7.639857E-1,-2.0519018E-2,1.5682888E-1,-3.0499673E-1,4.4250146E-2,1.7907381E-2,1.4971029E0,4.077054E-2,-8.588912E-1,-4.681972E-1,-3.4904918E-1,3.9527345E-1,2.2359876E-1,-1.180137E-1,-1.847833E-2,-2.7821779E-3,1.4966424E-1,-9.434081E-3,1.8598175E-2,8.113161E-2,-4.6029404E-2,-3.8195658E-1,-6.172493E-1,-1.2756968E-1,-2.3657925E-2,-5.4295063E-3,2.4402602E-2,2.923441E-3,-1.8778563E-3,2.567891E-1,-8.710432E-3,-1.4059544E-4,9.701776E-3,1.5230417E-3,9.919644E-4,-2.6125083E-2,-5.4635527E-3,-3.484954E-2,3.4630776E-3,-1.0813364E-2,1.8468857E-3,1.571635E-2],"categories":[],"categories_nodes":[],"categories_segments":[],"categories_sizes":[],"default_left":[0,0,0,0,0,0,0,0,0,0,0,0,0,0,0,0,0,0,0,0,0,0,0,0,0,0,0,0,0,0,0,0,0,0,0,0,0,0,0,0,0,0,0,0,0,0,0,0,0],"id":20,"left_children":[1,3,5,7,9,11,13,15,17,19,21,-1,23,25,-1,27,29,31,33,35,37,-1,-1,39,-1,-1,-1,-1,41,43,45,-1,-1,-1,-1,-1,47,-1,-1,-1,-1,-1,-1,-1,-1,-1,-1,-1,-1],"loss_changes":[3.0915064E1,4.3957443E0,1.1664448E0,3.0705175E0,6.380229E-1,1.3899574E0,3.5821724E-1,3.8388443E-1,1.2307729E0,2.466022E-1,4.383883E-2,0E0,1.3711697E-1,3.8510704E-1,0E0,2.3688316E-1,3.781991E-1,9.783572E-2,9.645718E-2,9.6322805E-2,1.8931419E-2,0E0,0E0,9.957142E-3,0E0,0E0,0E0,0E0,2.3624772E-1,1.6688037E-1,8.481283E-2,0E0,0E0,0E0,0E0,0E0,1.022374E-1,0E0,0E0,0E0,0E0,0E0,0E0,0E0,0E0,0E0,0E0,0E0,0E0],"parents":[2147483647,0,0,1,1,2,2,3,3,4,4,5,5,6,6,7,7,8,8,9,9,10,10,12,12,13,13,15,15,16,16,17,17,18,18,19,19,20,20,23,23,28,28,29,29,30,30,36,36],"right_children":[2,4,6,8,10,12,14,16,18,20,22,-1,24,26,-1,28,30,32,34,36,38,-1,-1,40,-1,-1,-1,-1,42,44,46,-1,-1,-1,-1,-1,48,-1,-1,-1,-1,-1,-1,-1,-1,-1,-1,-1,-1],"split_conditions":[5E0,2.3E1,1.4E1,4E0,1.185E1,6E0,2.3E1,3E0,1.3E1,2.9E1,1.13E1,4.4250146E-2,8E0,7.35E0,4.077054E-2,1.37E1,1.6E1,9.2E0,2E1,1.1E1,1E0,-1.847833E-2,-2.7821779E-3,5E0,-9.434081E-3,1.8598175E-2,8.113161E-2,-4.6029404E-2,1.387E1,2E0,1.9E1,-2.3657925E-2,-5.4295063E-3,2.4402602E-2,2.923441E-3,-1.8778563E-3,9.16E0,-8.710432E-3,-1.4059544E-4,9.701776E-3,1.5230417E-3,9.919644E-4,-2.6125083E-2,-5.4635527E-3,-3.484954E-2,3.4630776E-3,-1.0813364E-2,1.8468857E-3,1.571635E-2],"split_indices":[0,2,2,0,7,0,2,0,2,2,6,0,2,6,0,6,2,6,2,3,0,0,0,2,0,0,0,0,6,2,2,0,0,0,0,0,7,0,0,0,0,0,0,0,0,0,0,0,0],"split_type":[0,0,0,0,0,0,0,0,0,0,0,0,0,0,0,0,0,0,0,0,0,0,0,0,0,0,0,0,0,0,0,0,0,0,0,0,0,0,0,0,0,0,0,0,0,0,0,0,0],"sum_hessian":[6.8E1,4.8E1,2E1,3.4E1,1.4E1,7E0,1.3E1,2.7E1,7E0,1.1E1,3E0,4E0,3E0,6E0,7E0,1.9E1,8E0,4E0,3E0,9E0,2E0,2E0,1E0,2E0,1E0,1E0,5E0,1.6E1,3E0,5E0,3E0,2E0,2E0,2E0,1E0,1E0,8E0,1E0,1E0,1E0,1E0,1E0,2E0,1E0,4E0,1E0,2E0,2E0,6E0],"tree_param":{"num_deleted":"0","num_feature":"9","num_nodes":"49","size_leaf_vector":"1"}},{"base_weights":[7.261168E-2,-3.7087768E-1,9.562899E-1,-6.6954315E-1,-1.1884871E-2,1.1231384E0,5.2391267E-1,-5.0609255E-1,-1.0755464E0,-3.9900035E-1,1.02671735E-1,2.2354824E-2,1.1927528E0,9.678078E-2,9.2684937E-1,-2.3473316E-1,-6.821054E-1,-6.921894E-2,-3.052543E-1,-3.1367745E-2,-3.7645657E-2,3.9527878E-1,-5.218776E-2,1.2832938E0,2.3159249E-2,-9.198236E-3,2.1295834E-1,1.4136672E-2,5.236551E-2,5.369473E-3,-2.9092216E-1,-6.988033E-3,-3.9354876E-2,-2.3861242E-2,9.6716883E-4,-5.67379E-3,2.8503656E-3,8.9050926E-2,2.6306499E-2,-2.1850698E-2,6.847887E-2,3.962852E-2,7.8006744E-2,1.4849663E-3,1.3207245E-2,-1.9614412E-2,4.3919883E-4,6.8159103E-3,-1.3709068E-4,1.0670311E-2,-1.7041016E-2],"categories":[],"categories_nodes":[],"categories_segments":[],"categories_sizes":[],"default_left":[0,0,0,0,0,0,0,0,0,0,0,0,0,0,0,0,0,0,0,0,0,0,0,0,0,0,0,0,0,0,0,0,0,0,0,0,0,0,0,0,0,0,0,0,0,0,0,0,0,0,0],"id":21,"left_children":[1,3,5,7,9,11,13,15,17,19,21,-1,23,25,27,29,31,-1,33,-1,35,37,39,41,-1,-1,43,-1,-1,-1,45,-1,-1,-1,-1,-1,-1,47,-1,-1,49,-1,-1,-1,-1,-1,-1,-1,-1,-1,-1],"loss_changes":[2.5828289E1,4.7096686E0,9.9868584E-1,1.0483484E0,9.7224545E-1,1.7265892E-1,1.2871556E0,7.473793E-1,1.0047593E0,3.8896775E-1,7.909494E-1,0E0,2.6432228E-1,2.0225847E-1,1.4253378E-2,2.0425367E-1,5.163555E-1,0E0,1.7669484E-1,0E0,2.8001597E-2,1.935693E-1,5.871543E-1,2.5786018E-1,0E0,0E0,2.9676676E-2,0E0,0E0,0E0,2.4648613E-1,0E0,0E0,0E0,0E0,0E0,0E0,1.3390139E-2,0E0,0E0,6.659196E-1,0E0,0E0,0E0,0E0,0E0,0E0,0E0,0E0,0E0,0E0],"parents":[2147483647,0,0,1,1,2,2,3,3,4,4,5,5,6,6,7,7,8,8,9,9,10,10,12,12,13,13,14,14,15,15,16,16,18,18,20,20,21,21,22,22,23,23,26,26,30,30,37,37,40,40],"right_children":[2,4,6,8,10,12,14,16,18,20,22,-1,24,26,28,30,32,-1,34,-1,36,38,40,42,-1,-1,44,-1,-1,-1,46,-1,-1,-1,-1,-1,-1,48,-1,-1,50,-1,-1,-1,-1,-1,-1,-1,-1,-1,-1],"split_conditions":[5E0,1.9E1,1.399E1,1.111E1,8.03E0,5E0,1.5E1,9.66E0,1.37E1,3E0,1.119E1,2.2354824E-2,2.8E1,1.306E1,1.535E1,1E0,3E0,-6.921894E-2,1.6E1,-3.1367745E-2,4E0,2E0,2.3E1,1.091E1,2.3159249E-2,-9.198236E-3,8E0,1.4136672E-2,5.236551E-2,5.369473E-3,9.54E0,-6.988033E-3,-3.9354876E-2,-2.3861242E-2,9.6716883E-4,-5.67379E-3,2.8503656E-3,2.4E1,2.6306499E-2,-2.1850698E-2,2.9E1,3.962852E-2,7.8006744E-2,1.4849663E-3,1.3207245E-2,-1.9614412E-2,4.3919883E-4,6.8159103E-3,-1.3709068E-4,1.0670311E-2,-1.7041016E-2],"split_indices":[0,2,6,6,7,2,6,7,6,0,6,0,2,7,6,0,2,0,2,0,0,0,2,6,0,0,2,0,0,0,7,0,0,0,0,0,0,2,0,0,2,0,0,0,0,0,0,0,0,0,0],"split_type":[0,0,0,0,0,0,0,0,0,0,0,0,0,0,0,0,0,0,0,0,0,0,0,0,0,0,0,0,0,0,0,0,0,0,0,0,0,0,0,0,0,0,0,0,0,0,0,0,0,0,0],"sum_hessian":[6.4E1,4.3E1,2.1E1,2.3E1,2E1,1.4E1,7E0,1.8E1,5E0,4E0,1.6E1,2E0,1.2E1,4E0,3E0,8E0,1E1,3E0,2E0,2E0,2E0,5E0,1.1E1,1E1,2E0,1E0,3E0,1E0,2E0,1E0,7E0,2E0,8E0,1E0,1E0,1E0,1E0,2E0,3E0,2E0,9E0,5E0,5E0,1E0,2E0,5E0,2E0,1E0,1E0,7E0,2E0],"tree_param":{"num_deleted":"0","num_feature":"9","num_nodes":"51","size_leaf_vector":"1"}},{"base_weights":[-2.3830466E-2,-4.51776E-1,8.739521E-1,-6.884331E-1,1.0452019E-1,1.0213758E0,5.067166E-1,-7.736499E-1,-2.0442168E-1,2.2336431E-1,-2.484312E-1,2.1609657E-2,1.0835568E0,9.304047E-2,8.9713264E-1,-3.5769957E-1,-8.330181E-1,-3.2036266E-1,9.382081E-3,2.1729708E-2,2.9626107E-1,-1.3365746E-4,-1.6472977E-2,1.1667486E0,2.2253258E-2,-8.968282E-3,2.059834E-1,1.3783264E-2,5.062E-2,-3.7741024E-2,-2.7921248E-2,-4.9888918E-1,-9.88314E-1,-2.1557491E-2,-5.139399E-3,1.3729954E-2,-1.540931E-1,2.7791024E-3,3.227035E-1,1.7142488E-2,1.2201985E0,1.4478446E-3,1.2766997E-2,2.3216964E-3,-5.1522735E-3,4.118824E-3,-3.383666E-2,-6.30485E-2,-3.131004E-2,-2.0976781E-3,-9.459305E-3,1.8915901E-2,6.1222394E-3,6.417733E-2,1.7835354E-2],"categories":[],"categories_nodes":[],"categories_segments":[],"categories_sizes":[],"default_left":[0,0,0,0,0,0,0,0,0,0,0,0,0,0,0,0,0,0,0,0,0,0,0,0,0,0,0,0,0,0,0,0,0,0,0,0,0,0,0,0,0,0,0,0,0,0,0,0,0,0,0,0,0,0,0],"id":22,"left_children":[1,3,5,7,9,11,13,15,17,19,21,-1,23,25,27,29,31,33,-1,35,37,-1,-1,39,-1,-1,41,-1,-1,43,-1,45,47,-1,-1,-1,49,-1,51,-1,53,-1,-1,-1,-1,-1,-1,-1,-1,-1,-1,-1,-1,-1,-1],"loss_changes":[2.4983763E1,5.8646193E0,6.193752E-1,1.120471E0,6.427374E-1,4.4597626E-2,1.2085767E0,3.4407997E-1,3.328506E-1,1.5524596E-1,7.877274E-2,0E0,1.1812782E-1,1.9077806E-1,7.4563026E-3,3.0004346E-1,6.484966E-1,7.620531E-2,0E0,2.2015464E-1,3.2976568E-2,0E0,0E0,2.202797E-2,0E0,0E0,2.7555823E-2,0E0,0E0,2.1275798E-2,0E0,9.861181E-1,5.9263134E-1,0E0,0E0,0E0,3.8689077E-3,0E0,3.1637967E-2,0E0,3.44553E-2,0E0,0E0,0E0,0E0,0E0,0E0,0E0,0E0,0E0,0E0,0E0,0E0,0E0,0E0],"parents":[2147483647,0,0,1,1,2,2,3,3,4,4,5,5,6,6,7,7,8,8,9,9,10,10,12,12,13,13,14,14,15,15,16,16,17,17,19,19,20,20,23,23,26,26,29,29,31,31,32,32,36,36,38,38,40,40],"right_children":[2,4,6,8,10,12,14,16,18,20,22,-1,24,26,28,30,32,34,-1,36,38,-1,-1,40,-1,-1,42,-1,-1,44,-1,46,48,-1,-1,-1,50,-1,52,-1,54,-1,-1,-1,-1,-1,-1,-1,-1,-1,-1,-1,-1,-1,-1],"split_conditions":[5E0,2.1E1,1.399E1,4E0,2.9E1,5E0,1.5E1,4E0,1.3E1,1.1E1,1.073E1,2.1609657E-2,1.5E1,1.306E1,1.535E1,1.027E1,8.46E0,9.2E0,9.382081E-3,2.2E1,2.2E1,-1.3365746E-4,-1.6472977E-2,7.35E0,2.2253258E-2,-8.968282E-3,8E0,1.3783264E-2,5.062E-2,2E0,-2.7921248E-2,1E0,1.1E1,-2.1557491E-2,-5.139399E-3,1.3729954E-2,1E0,2.7791024E-3,1.2E1,1.7142488E-2,2.8E1,1.4478446E-3,1.2766997E-2,2.3216964E-3,-5.1522735E-3,4.118824E-3,-3.383666E-2,-6.30485E-2,-3.131004E-2,-2.0976781E-3,-9.459305E-3,1.8915901E-2,6.1222394E-3,6.417733E-2,1.7835354E-2],"split_indices":[0,2,6,0,2,2,6,2,2,3,6,0,7,7,6,6,7,6,0,2,2,0,0,6,0,0,2,0,0,0,0,0,3,0,0,0,0,0,3,0,2,0,0,0,0,0,0,0,0,0,0,0,0,0,0],"split_type":[0,0,0,0,0,0,0,0,0,0,0,0,0,0,0,0,0,0,0,0,0,0,0,0,0,0,0,0,0,0,0,0,0,0,0,0,0,0,0,0,0,0,0,0,0,0,0,0,0,0,0,0,0,0,0],"sum_hessian":[6.3E1,4.3E1,2E1,3E1,1.3E1,1.3E1,7E0,2.5E1,5E0,1E1,3E0,2E0,1.1E1,4E0,3E0,4E0,2.1E1,4E0,1E0,3E0,7E0,1E0,2E0,9E0,2E0,1E0,3E0,1E0,2E0,2E0,2E0,8E0,1.3E1,2E0,2E0,1E0,2E0,1E0,6E0,1E0,8E0,1E0,2E0,1E0,1E0,2E0,6E0,6E0,7E0,1E0,1E0,4E0,2E0,7E0,1E0],"tree_param":{"num_deleted":"0","num_feature":"9","num_nodes":"55","size_leaf_vector":"1"}},{"base_weights":[-7.301203E-2,-4.2071858E-1,8.389447E-1,-6.469783E-1,-8.2919076E-2,1.030224E0,2.8468212E-1,-9.026806E-1,-4.28425E-1,-4.1948318E-1,9.128577E-2,1.0990694E0,2.171914E-2,-9.77656E-2,2.501737E-2,-9.877971E-1,8.400202E-4,-6.0985523E-1,-1.99392E-1,-5.668381E-1,-3.4063976E-2,3.7300968E-1,-1.0667303E-1,7.491865E-1,6.845457E-2,1.4116525E-3,-8.744073E-3,-3.5848904E-1,-1.0878112E0,-1.0605407E-2,-7.733774E-1,-2.7005363E-1,9.147525E-3,-3.308436E-2,-4.686046E-3,8.13768E-3,-1.0692477E-2,4.4865417E-1,-1.303196E-4,-1.4387644E-2,3.1825703E-2,3.9940216E-2,1.1286998E-2,-2.9150343E-2,2.2636652E-3,-2.865026E-2,-6.2485665E-2,-4.1729413E-2,-1.1683083E-2,-1.6616857E-2,4.1482686E-3,6.492448E-3,2.4794662E-2,-1.2908983E-2,1.2068666E-2],"categories":[],"categories_nodes":[],"categories_segments":[],"categories_sizes":[],"default_left":[0,0,0,0,0,0,0,0,0,0,0,0,0,0,0,0,0,0,0,0,0,0,0,0,0,0,0,0,0,0,0,0,0,0,0,0,0,0,0,0,0,0,0,0,0,0,0,0,0,0,0,0,0,0,0],"id":23,"left_children":[1,3,5,7,9,11,13,15,17,19,21,23,-1,25,-1,27,-1,29,31,33,35,37,39,41,-1,-1,-1,43,45,-1,47,49,-1,-1,-1,-1,-1,51,-1,-1,53,-1,-1,-1,-1,-1,-1,-1,-1,-1,-1,-1,-1,-1,-1],"loss_changes":[2.0646933E1,3.5385828E0,1.6150551E0,1.1780367E0,1.2109149E0,5.5854797E-2,5.4380095E-1,9.5575047E-1,5.848093E-1,3.78245E-1,8.205663E-1,1.3531685E-2,0E0,3.408692E-2,0E0,3.0236816E-1,0E0,4.2132473E-1,2.9255894E-1,1.6235971E-1,1.4095965E-1,1.7164904E-1,2.348719E-1,1.4836788E-3,0E0,0E0,0E0,2.983502E-1,3.404236E-2,0E0,3.2074451E-3,2.0347053E-1,0E0,0E0,0E0,0E0,0E0,1.09090805E-2,0E0,0E0,4.2693725E-1,0E0,0E0,0E0,0E0,0E0,0E0,0E0,0E0,0E0,0E0,0E0,0E0,0E0,0E0],"parents":[2147483647,0,0,1,1,2,2,3,3,4,4,5,5,6,6,7,7,8,8,9,9,10,10,11,11,13,13,15,15,17,17,18,18,19,19,20,20,21,21,22,22,23,23,27,27,28,28,30,30,31,31,37,37,40,40],"right_children":[2,4,6,8,10,12,14,16,18,20,22,24,-1,26,-1,28,-1,30,32,34,36,38,40,42,-1,-1,-1,44,46,-1,48,50,-1,-1,-1,-1,-1,52,-1,-1,54,-1,-1,-1,-1,-1,-1,-1,-1,-1,-1,-1,-1,-1,-1],"split_conditions":[5E0,1.9E1,1.399E1,2E0,9.35E0,2.8E1,1.2E1,1.37E1,1E1,2.3E1,1.119E1,1.091E1,2.171914E-2,8E0,2.501737E-2,3E0,8.400202E-4,4E0,9.85E0,3E0,2.5E1,2.8E1,1.057E1,1.081E1,6.845457E-2,1.4116525E-3,-8.744073E-3,1E0,8.63E0,-1.0605407E-2,9E0,1.8E1,9.147525E-3,-3.308436E-2,-4.686046E-3,8.13768E-3,-1.0692477E-2,2E0,-1.303196E-4,-1.4387644E-2,1.161E1,3.9940216E-2,1.1286998E-2,-2.9150343E-2,2.2636652E-3,-2.865026E-2,-6.2485665E-2,-4.1729413E-2,-1.1683083E-2,-1.6616857E-2,4.1482686E-3,6.492448E-3,2.4794662E-2,-1.2908983E-2,1.2068666E-2],"split_indices":[0,2,6,0,7,2,2,6,2,2,6,6,0,2,0,2,0,2,6,0,2,2,7,6,0,0,0,0,7,0,2,2,0,0,0,0,0,0,0,0,6,0,0,0,0,0,0,0,0,0,0,0,0,0,0],"split_type":[0,0,0,0,0,0,0,0,0,0,0,0,0,0,0,0,0,0,0,0,0,0,0,0,0,0,0,0,0,0,0,0,0,0,0,0,0,0,0,0,0,0,0,0,0,0,0,0,0,0,0,0,0,0,0],"sum_hessian":[6.3E1,4.6E1,1.7E1,2.7E1,1.9E1,1.2E1,5E0,1.1E1,1.6E1,6E0,1.3E1,1E1,2E0,2E0,3E0,1E1,1E0,8E0,8E0,4E0,2E0,5E0,8E0,6E0,4E0,1E0,1E0,2E0,8E0,3E0,5E0,7E0,1E0,3E0,1E0,1E0,1E0,4E0,1E0,3E0,5E0,5E0,1E0,1E0,1E0,3E0,5E0,4E0,1E0,6E0,1E0,1E0,3E0,2E0,3E0],"tree_param":{"num_deleted":"0","num_feature":"9","num_nodes":"55","size_leaf_vector":"1"}},{"base_weights":[-1.087503E-2,-3.5123324E-1,7.8951055E-1,-7.6219857E-1,-1.537874E-1,1.0461609E0,4.8441827E-1,-3.1086603E-1,-9.5677817E-1,-3.709729E-1,-4.3229684E-2,3.595228E-2,6.785363E-2,-5.0034523E-3,6.6857684E-1,-7.138014E-2,-2.6327929E-2,-5.2317884E-2,-1.994869E-2,-5.2232E-1,-1.5779702E-1,1.7451754E-1,-1.9567558E-1,1.07001625E-1,-8.5254675E-3,2.0522421E-2,4.809874E-2,2.2070648E-3,-6.230052E-3,-9.360138E-3,-3.2153893E-2,-2.3145223E-1,-6.9910684E-3,4.3332458E-2,2.3308596E-2,-4.2423472E-1,-2.1561094E-2,6.648755E-3,1.3763666E-3,-1.3973618E-2,-2.1847964E-3,4.0445565E-3,-4.568887E-3,1.4007903E-2,-7.739725E-3,-9.791029E-3,-2.9368768E-2,1.2634821E-2,-1.4575319E-2],"categories":[],"categories_nodes":[],"categories_segments":[],"categories_sizes":[],"default_left":[0,0,0,0,0,0,0,0,0,0,0,0,0,0,0,0,0,0,0,0,0,0,0,0,0,0,0,0,0,0,0,0,0,0,0,0,0,0,0,0,0,0,0,0,0,0,0,0,0],"id":24,"left_children":[1,3,5,7,9,11,13,15,17,19,21,-1,-1,23,25,27,-1,-1,-1,29,31,33,35,37,-1,-1,-1,-1,-1,-1,-1,39,41,43,-1,45,47,-1,-1,-1,-1,-1,-1,-1,-1,-1,-1,-1,-1],"loss_changes":[1.8256878E1,3.6965232E0,1.0592632E0,1.0198727E0,7.7634364E-1,4.12426E-2,9.947884E-1,2.7234602E-1,8.220768E-2,2.7247846E-1,7.976262E-1,0E0,0E0,9.239477E-2,2.1103358E-1,3.0092672E-2,0E0,0E0,0E0,1.2242222E-1,6.502777E-2,3.6240667E-1,5.479894E-1,2.5322214E-3,0E0,0E0,0E0,0E0,0E0,0E0,0E0,2.3852512E-2,2.9639905E-2,4.187392E-1,0E0,1.08561516E-1,7.3997337E-1,0E0,0E0,0E0,0E0,0E0,0E0,0E0,0E0,0E0,0E0,0E0,0E0],"parents":[2147483647,0,0,1,1,2,2,3,3,4,4,5,5,6,6,7,7,8,8,9,9,10,10,13,13,14,14,15,15,19,19,20,20,21,21,22,22,23,23,31,31,32,32,33,33,35,35,36,36],"right_children":[2,4,6,8,10,12,14,16,18,20,22,-1,-1,24,26,28,-1,-1,-1,30,32,34,36,38,-1,-1,-1,-1,-1,-1,-1,40,42,44,-1,46,48,-1,-1,-1,-1,-1,-1,-1,-1,-1,-1,-1,-1],"split_conditions":[5E0,1E1,1.206E1,4E0,9.85E0,1.091E1,1.2E1,1.058E1,4E0,3E0,1.119E1,3.595228E-2,6.785363E-2,8E0,1.535E1,2E0,-2.6327929E-2,-5.2317884E-2,-1.994869E-2,1.5E1,1.6E1,1.088E1,2.3E1,5E0,-8.5254675E-3,2.0522421E-2,4.809874E-2,2.2070648E-3,-6.230052E-3,-9.360138E-3,-3.2153893E-2,4E0,1.9E1,1.029E1,2.3308596E-2,1.2E1,2.6E1,6.648755E-3,1.3763666E-3,-1.3973618E-2,-2.1847964E-3,4.0445565E-3,-4.568887E-3,1.4007903E-2,-7.739725E-3,-9.791029E-3,-2.9368768E-2,1.2634821E-2,-1.4575319E-2],"split_indices":[0,2,6,2,6,6,2,6,0,0,6,0,0,2,6,0,0,0,0,2,2,6,2,2,0,0,0,0,0,0,0,0,2,6,0,3,2,0,0,0,0,0,0,0,0,0,0,0,0],"split_type":[0,0,0,0,0,0,0,0,0,0,0,0,0,0,0,0,0,0,0,0,0,0,0,0,0,0,0,0,0,0,0,0,0,0,0,0,0,0,0,0,0,0,0,0,0,0,0,0,0],"sum_hessian":[6.5E1,4.6E1,1.9E1,1.4E1,3.2E1,9E0,1E1,5E0,9E0,1E1,2.2E1,6E0,3E0,3E0,7E0,3E0,2E0,7E0,2E0,5E0,5E0,9E0,1.3E1,2E0,1E0,5E0,2E0,1E0,2E0,2E0,3E0,3E0,2E0,7E0,2E0,5E0,8E0,1E0,1E0,2E0,1E0,1E0,1E0,3E0,4E0,3E0,2E0,4E0,4E0],"tree_param":{"num_deleted":"0","num_feature":"9","num_nodes":"49","size_leaf_vector":"1"}},{"base_weights":[-5.3573687E-2,-3.9198E-1,7.4435985E-1,-6.289021E-1,-6.87002E-2,3.2894447E-1,8.9889896E-1,-8.46841E-1,-3.9809486E-1,-4.559455E-1,2.1170987E-2,5.162851E-1,-9.29381E-2,1.0051246E0,1.9102681E-2,-9.255213E-1,-2.7606615E-1,-4.9606887E-1,-4.6491623E-3,-2.7426591E-2,-4.4546607E-3,2.3821858E-1,-1.07204355E-1,2.9026557E-2,6.48253E-3,1.3419628E-3,-8.312321E-3,1.48166185E-2,5.2318532E-2,-4.747305E-1,-5.5764873E-2,-2.1768762E-2,1.0637998E-3,-1.6348743E-1,-3.5513587E-2,-6.022374E-3,8.5686445E-3,4.1755238E-1,-1.4007728E-1,-2.0363737E-2,3.8071845E-2,2.1518946E-3,-3.0746603E-2,-1.31681925E-2,1.2088459E-3,5.9799436E-3,2.3107052E-2,6.644726E-5,-1.0572243E-2,1.334569E-2,-9.919224E-3],"categories":[],"categories_nodes":[],"categories_segments":[],"categories_sizes":[],"default_left":[0,0,0,0,0,0,0,0,0,0,0,0,0,0,0,0,0,0,0,0,0,0,0,0,0,0,0,0,0,0,0,0,0,0,0,0,0,0,0,0,0,0,0,0,0,0,0,0,0,0,0],"id":25,"left_children":[1,3,5,7,9,11,13,15,17,19,21,23,25,27,-1,29,31,33,35,-1,-1,37,39,-1,-1,-1,-1,-1,-1,41,-1,-1,-1,43,-1,-1,-1,45,47,-1,49,-1,-1,-1,-1,-1,-1,-1,-1,-1,-1],"loss_changes":[1.8113474E1,3.556624E0,9.8827076E-1,1.0210276E0,7.404989E-1,6.012328E-1,3.846197E-1,3.2830906E-1,5.759053E-1,8.699161E-2,5.2708215E-1,4.8932433E-2,3.0803962E-2,1.1509895E-2,0E0,4.1157627E-1,1.5137093E-1,7.387583E-1,1.0217366E-1,0E0,0E0,5.333783E-1,5.386227E-1,0E0,0E0,0E0,0E0,0E0,0E0,3.8942516E-1,0E0,0E0,0E0,1.1882676E-1,0E0,0E0,0E0,1.11551285E-2,3.0556459E-2,0E0,5.399517E-1,0E0,0E0,0E0,0E0,0E0,0E0,0E0,0E0,0E0,0E0],"parents":[2147483647,0,0,1,1,2,2,3,3,4,4,5,5,6,6,7,7,8,8,9,9,10,10,11,11,12,12,13,13,15,15,16,16,17,17,18,18,21,21,22,22,29,29,33,33,37,37,38,38,40,40],"right_children":[2,4,6,8,10,12,14,16,18,20,22,24,26,28,-1,30,32,34,36,-1,-1,38,40,-1,-1,-1,-1,-1,-1,42,-1,-1,-1,44,-1,-1,-1,46,48,-1,50,-1,-1,-1,-1,-1,-1,-1,-1,-1,-1],"split_conditions":[5E0,1.9E1,1.4E1,2E0,8.03E0,1.386E1,1.5E1,1.37E1,9.85E0,3E0,1.119E1,6E0,8E0,7.35E0,1.9102681E-2,9.35E0,1.6E1,9.66E0,3E0,-2.7426591E-2,-4.4546607E-3,1.091E1,2.3E1,2.9026557E-2,6.48253E-3,1.3419628E-3,-8.312321E-3,1.48166185E-2,5.2318532E-2,3E0,-5.5764873E-2,-2.1768762E-2,1.0637998E-3,9.54E0,-3.5513587E-2,-6.022374E-3,8.5686445E-3,2E0,2E0,-2.0363737E-2,1.2E1,2.1518946E-3,-3.0746603E-2,-1.31681925E-2,1.2088459E-3,5.9799436E-3,2.3107052E-2,6.644726E-5,-1.0572243E-2,1.334569E-2,-9.919224E-3],"split_indices":[0,2,2,0,7,6,7,6,6,0,6,0,2,6,0,6,2,7,2,0,0,7,2,0,0,0,0,0,0,2,0,0,0,7,0,0,0,0,0,0,3,0,0,0,0,0,0,0,0,0,0],"split_type":[0,0,0,0,0,0,0,0,0,0,0,0,0,0,0,0,0,0,0,0,0,0,0,0,0,0,0,0,0,0,0,0,0,0,0,0,0,0,0,0,0,0,0,0,0,0,0,0,0,0,0],"sum_hessian":[6.5E1,4.6E1,1.9E1,2.6E1,2E1,6E0,1.3E1,1.2E1,1.4E1,3E0,1.7E1,4E0,2E0,1E1,3E0,1E1,2E0,1.1E1,3E0,2E0,1E0,6E0,1.1E1,3E0,1E0,1E0,1E0,1E0,9E0,4E0,6E0,1E0,1E0,5E0,6E0,2E0,1E0,4E0,2E0,3E0,8E0,1E0,3E0,3E0,2E0,1E0,3E0,1E0,1E0,4E0,4E0],"tree_param":{"num_deleted":"0","num_feature":"9","num_nodes":"51","size_leaf_vector":"1"}},{"base_weights":[-1.7792694E-2,-3.5825303E-1,8.0741614E-1,-6.164111E-1,4.104584E-2,3.2719994E-1,9.5555055E-1,-9.024955E-1,-3.7820968E-1,-1.11860596E-1,2.6527476E-1,2.7938044E-2,-9.061464E-2,1.0824366E0,1.8386317E-2,-1.0022453E0,-2.691644E-1,-5.401772E-1,-1.7421882E-1,-2.6687923E-1,3.6992617E-2,3.6791706E-1,-2.8434753E-2,1.3084173E-3,-8.104515E-3,1.4446211E-2,1.1328954E0,-4.567129E-1,-6.4490736E-2,-2.1224547E-2,1.0372162E-3,-5.8216257E-3,-3.2230698E-2,-2.3776829E-1,8.354425E-3,-3.453083E-1,3.131652E-3,1.2602842E-2,-1.8731976E-1,1.9105959E-1,2.40544E-2,6.477833E-5,-2.1973848E-3,5.9599638E-2,1.5025473E-2,2.0981075E-3,-2.9593611E-2,-1.4704821E-2,3.913212E-3,-4.343295E-3,-1.9410122E-2,-1.6547919E-3,-1.1384789E-2,1.2490686E-2,3.6993026E-4],"categories":[],"categories_nodes":[],"categories_segments":[],"categories_sizes":[],"default_left":[0,0,0,0,0,0,0,0,0,0,0,0,0,0,0,0,0,0,0,0,0,0,0,0,0,0,0,0,0,0,0,0,0,0,0,0,0,0,0,0,0,0,0,0,0,0,0,0,0,0,0,0,0,0,0],"id":26,"left_children":[1,3,5,7,9,11,13,15,17,19,21,-1,23,25,-1,27,29,31,33,35,37,39,41,-1,-1,-1,43,45,-1,-1,-1,-1,-1,47,-1,49,-1,-1,51,53,-1,-1,-1,-1,-1,-1,-1,-1,-1,-1,-1,-1,-1,-1,-1],"loss_changes":[1.8270117E1,4.767083E0,1.0389376E0,1.5667477E0,6.8110865E-1,6.3112915E-1,6.461735E-1,4.8832607E-1,4.6756935E-1,2.8677285E-1,2.5163788E-1,0E0,2.928306E-2,1.13116264E-1,0E0,9.797096E-1,1.4389731E-1,3.232367E-1,2.3493749E-1,1.7668778E-1,3.8490617E-1,2.8174162E-2,1.4405514E-3,0E0,0E0,0E0,1.3371181E-1,3.6183906E-1,0E0,0E0,0E0,0E0,0E0,1.6542935E-1,0E0,2.17067E-2,0E0,0E0,1.7371997E-2,4.1315094E-2,0E0,0E0,0E0,0E0,0E0,0E0,0E0,0E0,0E0,0E0,0E0,0E0,0E0,0E0,0E0],"parents":[2147483647,0,0,1,1,2,2,3,3,4,4,5,5,6,6,7,7,8,8,9,9,10,10,12,12,13,13,15,15,16,16,17,17,18,18,19,19,20,20,21,21,22,22,26,26,27,27,33,33,35,35,38,38,39,39],"right_children":[2,4,6,8,10,12,14,16,18,20,22,-1,24,26,-1,28,30,32,34,36,38,40,42,-1,-1,-1,44,46,-1,-1,-1,-1,-1,48,-1,50,-1,-1,52,54,-1,-1,-1,-1,-1,-1,-1,-1,-1,-1,-1,-1,-1,-1,-1],"split_conditions":[5E0,1.9E1,1.4E1,2E0,1.054E1,6E0,1.5E1,1.37E1,1E1,2.3E1,1.174E1,2.7938044E-2,8E0,7.35E0,1.8386317E-2,9.35E0,1.6E1,3E0,9.85E0,4E0,2.6E1,4E0,2E0,1.3084173E-3,-8.104515E-3,1.4446211E-2,2.9E1,3E0,-6.4490736E-2,-2.1224547E-2,1.0372162E-3,-5.8216257E-3,-3.2230698E-2,1.8E1,8.354425E-3,9.16E0,3.131652E-3,1.2602842E-2,1.1E1,1.2E1,2.40544E-2,6.477833E-5,-2.1973848E-3,5.9599638E-2,1.5025473E-2,2.0981075E-3,-2.9593611E-2,-1.4704821E-2,3.913212E-3,-4.343295E-3,-1.9410122E-2,-1.6547919E-3,-1.1384789E-2,1.2490686E-2,3.6993026E-4],"split_indices":[0,2,2,0,7,0,7,6,2,2,7,0,2,6,0,6,2,2,6,0,2,0,0,0,0,0,2,2,0,0,0,0,0,2,0,6,0,0,3,3,0,0,0,0,0,0,0,0,0,0,0,0,0,0,0],"split_type":[0,0,0,0,0,0,0,0,0,0,0,0,0,0,0,0,0,0,0,0,0,0,0,0,0,0,0,0,0,0,0,0,0,0,0,0,0,0,0,0,0,0,0,0,0,0,0,0,0,0,0,0,0,0,0],"sum_hessian":[6.3E1,4.5E1,1.8E1,2.7E1,1.8E1,5E0,1.3E1,1.1E1,1.6E1,1.1E1,7E0,3E0,2E0,1E1,3E0,9E0,2E0,8E0,8E0,5E0,6E0,5E0,2E0,1E0,1E0,1E0,9E0,4E0,5E0,1E0,1E0,2E0,6E0,7E0,1E0,4E0,1E0,3E0,3E0,3E0,2E0,1E0,1E0,8E0,1E0,1E0,3E0,6E0,1E0,1E0,3E0,1E0,2E0,2E0,1E0],"tree_param":{"num_deleted":"0","num_feature":"9","num_nodes":"55","size_leaf_vector":"1"}},{"base_weights":[-2.0410648E-2,-3.5425058E-1,7.484417E-1,-5.35993E-1,2.0016074E-2,3.369228E-1,9.0074104E-1,-6.4690185E-1,-3.0647883E-1,9.571552E-2,-1.6996002E-2,5.929992E-1,-3.3843517E-3,1.0176934E0,1.7696846E-2,-2.560954E-1,-7.600977E-1,-4.4297728E-1,7.72624E-2,2.0870931E-1,-1.511848E-2,3.3745352E-2,8.681893E-3,1.0084629E-1,-7.901907E-3,1.4085054E-2,1.0631225E0,1.2377962E-1,-2.3848891E-2,-3.2531905E-1,-8.416824E-1,-5.6275846E-3,-5.2130574E-1,7.973973E-3,-4.2347196E-3,2.4307315E-1,6.315708E-5,-1.7373109E-1,1.14795305E-1,6.2877657E-3,1.2757063E-3,6.3126095E-2,6.1121863E-1,8.272195E-3,1.0112763E-3,2.0456554E-3,-2.3051707E-2,-4.71836E-2,-2.0089258E-2,-2.8142586E-2,-6.800747E-3,1.33630475E-2,3.0533553E-3,-1.1822525E-2,3.6067964E-4,-5.341037E-3,1.4907313E-2,9.365304E-3,4.1569583E-2],"categories":[],"categories_nodes":[],"categories_segments":[],"categories_sizes":[],"default_left":[0,0,0,0,0,0,0,0,0,0,0,0,0,0,0,0,0,0,0,0,0,0,0,0,0,0,0,0,0,0,0,0,0,0,0,0,0,0,0,0,0,0,0,0,0,0,0,0,0,0,0,0,0,0,0,0,0,0,0],"id":27,"left_children":[1,3,5,7,9,11,13,15,17,19,-1,21,23,25,-1,27,29,31,33,35,37,-1,-1,39,-1,-1,41,43,-1,45,47,-1,49,-1,-1,51,-1,53,55,-1,-1,-1,57,-1,-1,-1,-1,-1,-1,-1,-1,-1,-1,-1,-1,-1,-1,-1,-1],"loss_changes":[1.694892E1,3.1396556E0,9.5000076E-1,5.9084797E-1,4.6848705E-1,6.120193E-1,5.3510094E-1,6.900959E-1,6.627865E-1,1.7848513E-1,0E0,2.020657E-2,8.041622E-2,6.830788E-2,0E0,5.624864E-1,2.5825405E-1,1.7426181E-1,6.676945E-2,4.959348E-2,1.8479122E-1,0E0,0E0,2.420811E-3,0E0,0E0,1.2941647E-1,9.597328E-3,0E0,2.1767527E-1,1.5922642E-1,0E0,3.5494804E-2,0E0,0E0,1.0093093E-2,0E0,4.7100633E-2,2.3501578E-1,0E0,0E0,0E0,3.1094575E-1,0E0,0E0,0E0,0E0,0E0,0E0,0E0,0E0,0E0,0E0,0E0,0E0,0E0,0E0,0E0,0E0],"parents":[2147483647,0,0,1,1,2,2,3,3,4,4,5,5,6,6,7,7,8,8,9,9,11,11,12,12,13,13,15,15,16,16,17,17,18,18,19,19,20,20,23,23,26,26,27,27,29,29,30,30,32,32,35,35,37,37,38,38,42,42],"right_children":[2,4,6,8,10,12,14,16,18,20,-1,22,24,26,-1,28,30,32,34,36,38,-1,-1,40,-1,-1,42,44,-1,46,48,-1,50,-1,-1,52,-1,54,56,-1,-1,-1,58,-1,-1,-1,-1,-1,-1,-1,-1,-1,-1,-1,-1,-1,-1,-1,-1],"split_conditions":[5E0,2.1E1,1.4E1,3E0,1.185E1,6E0,1.5E1,8.46E0,1.6E1,1.185E1,-1.6996002E-2,1.1E1,8E0,7.35E0,1.7696846E-2,1E0,4E0,3E0,1.9E1,2.8E1,1.201E1,3.3745352E-2,8.681893E-3,5E0,-7.901907E-3,1.4085054E-2,2.3E1,1.3E1,-2.3848891E-2,8.99E0,1.6E1,-5.6275846E-3,1.2E1,7.973973E-3,-4.2347196E-3,4E0,6.315708E-5,1.023E1,1E0,6.2877657E-3,1.2757063E-3,6.3126095E-2,2.6E1,8.272195E-3,1.0112763E-3,2.0456554E-3,-2.3051707E-2,-4.71836E-2,-2.0089258E-2,-2.8142586E-2,-6.800747E-3,1.33630475E-2,3.0533553E-3,-1.1822525E-2,3.6067964E-4,-5.341037E-3,1.4907313E-2,9.365304E-3,4.1569583E-2],"split_indices":[0,2,2,0,7,0,7,7,2,6,0,2,2,6,0,0,2,2,2,2,6,0,0,2,0,0,2,2,0,6,2,0,2,0,0,0,0,7,0,0,0,0,2,0,0,0,0,0,0,0,0,0,0,0,0,0,0,0,0],"split_type":[0,0,0,0,0,0,0,0,0,0,0,0,0,0,0,0,0,0,0,0,0,0,0,0,0,0,0,0,0,0,0,0,0,0,0,0,0,0,0,0,0,0,0,0,0,0,0,0,0,0,0,0,0,0,0,0,0,0,0],"sum_hessian":[6.4E1,4.5E1,1.9E1,3E1,1.5E1,6E0,1.3E1,1.9E1,1.1E1,1.3E1,2E0,3E0,3E0,1E1,3E0,5E0,1.4E1,8E0,3E0,6E0,7E0,2E0,1E0,2E0,1E0,1E0,9E0,2E0,3E0,3E0,1.1E1,2E0,6E0,2E0,1E0,5E0,1E0,3E0,4E0,1E0,1E0,5E0,4E0,1E0,1E0,1E0,2E0,8E0,3E0,5E0,1E0,4E0,1E0,2E0,1E0,2E0,2E0,2E0,2E0],"tree_param":{"num_deleted":"0","num_feature":"9","num_nodes":"59","size_leaf_vector":"1"}},{"base_weights":[3.666718E-2,-2.966929E-1,8.242744E-1,-6.1373127E-1,-1.6280833E-1,9.46662E-1,4.7922966E-1,-1.23278044E-1,-8.1801295E-1,-3.325194E-1,1.6479716E-2,1.0229126E0,1.7576123E-2,1.7868271E-1,4.10199E-2,1.9945146E-3,-8.702136E-3,-8.495092E-3,-8.777891E-1,-4.2727104E-1,8.224106E-2,1.7166488E-1,-1.4053652E-1,1.3732934E-2,1.0702722E0,1.2438059E-3,1.0545767E-2,-4.9037375E-2,-1.8963797E-2,-1.2651882E-1,-5.3492004E-1,1.2025563E-2,-9.814239E-3,2.4226344E-1,-9.828091E-3,-6.022862E-2,-1.4053806E-2,5.8739543E-2,2.1739913E-2,8.06539E-3,-1.1940122E-2,-3.463268E-2,-6.2578204E-3,1.8794824E-3,2.187699E-2,-1.1948347E-2,2.9530048E-3],"categories":[],"categories_nodes":[],"categories_segments":[],"categories_sizes":[],"default_left":[0,0,0,0,0,0,0,0,0,0,0,0,0,0,0,0,0,0,0,0,0,0,0,0,0,0,0,0,0,0,0,0,0,0,0,0,0,0,0,0,0,0,0,0,0,0,0],"id":28,"left_children":[1,3,5,7,9,11,13,15,17,19,21,23,-1,25,-1,-1,-1,-1,27,29,31,33,35,-1,37,-1,-1,-1,-1,39,41,-1,-1,43,-1,45,-1,-1,-1,-1,-1,-1,-1,-1,-1,-1,-1],"loss_changes":[1.6785637E1,1.8101742E0,3.4868717E-1,1.2016349E0,1.0095764E0,2.3036003E-1,5.7116854E-1,4.8358537E-2,1.9953585E-1,7.0322585E-1,4.383572E-1,9.5846176E-2,0E0,1.9541204E-2,0E0,0E0,0E0,0E0,3.86343E-2,3.8558197E-1,2.2353804E-1,2.8158623E-1,8.464913E-2,0E0,1.5339184E-1,0E0,0E0,0E0,0E0,2.0011178E-1,5.5964446E-1,0E0,0E0,3.0329666E-1,0E0,1.6336367E-1,0E0,0E0,0E0,0E0,0E0,0E0,0E0,0E0,0E0,0E0,0E0],"parents":[2147483647,0,0,1,1,2,2,3,3,4,4,5,5,6,6,7,7,8,8,9,9,10,10,11,11,13,13,18,18,19,19,20,20,21,21,22,22,24,24,29,29,30,30,33,33,35,35],"right_children":[2,4,6,8,10,12,14,16,18,20,22,24,-1,26,-1,-1,-1,-1,28,30,32,34,36,-1,38,-1,-1,-1,-1,40,42,-1,-1,44,-1,46,-1,-1,-1,-1,-1,-1,-1,-1,-1,-1,-1],"split_conditions":[5E0,1E1,1.399E1,4E0,9.35E0,2.8E1,1.535E1,2E0,8.41E0,2.3E1,1.119E1,7.35E0,1.7576123E-2,8E0,4.10199E-2,1.9945146E-3,-8.702136E-3,-8.495092E-3,1.086E1,1.1E1,2.6E1,1.091E1,2.7E1,1.3732934E-2,1.5E1,1.2438059E-3,1.0545767E-2,-4.9037375E-2,-1.8963797E-2,1E0,3E0,1.2025563E-2,-9.814239E-3,1.016E1,-9.828091E-3,2.3E1,-1.4053806E-2,5.8739543E-2,2.1739913E-2,8.06539E-3,-1.1940122E-2,-3.463268E-2,-6.2578204E-3,1.8794824E-3,2.187699E-2,-1.1948347E-2,2.9530048E-3],"split_indices":[0,2,6,2,7,2,6,0,6,2,6,6,0,2,0,0,0,0,7,3,2,7,2,0,7,0,0,0,0,0,0,0,0,6,0,2,0,0,0,0,0,0,0,0,0,0,0],"split_type":[0,0,0,0,0,0,0,0,0,0,0,0,0,0,0,0,0,0,0,0,0,0,0,0,0,0,0,0,0,0,0,0,0,0,0,0,0,0,0,0,0,0,0,0,0,0,0],"sum_hessian":[6.2E1,4.4E1,1.8E1,1.2E1,3.2E1,1.2E1,6E0,4E0,8E0,1.6E1,1.6E1,1E1,2E0,4E0,2E0,1E0,3E0,1E0,7E0,1.3E1,3E0,8E0,8E0,1E0,9E0,1E0,3E0,5E0,2E0,4E0,9E0,2E0,1E0,7E0,1E0,6E0,2E0,7E0,2E0,1E0,3E0,6E0,3E0,4E0,3E0,2E0,4E0],"tree_param":{"num_deleted":"0","num_feature":"9","num_nodes":"47","size_leaf_vector":"1"}},{"base_weights":[-3.3713873E-2,-3.3174095E-1,6.832368E-1,-5.287682E-1,-7.485568E-2,8.2419914E-1,3.0370685E-1,-6.098666E-1,-1.4327924E-1,-2.9565775E-1,4.789581E-2,4.662085E-3,8.732542E-1,9.030215E-2,3.960338E-2,-1.1030269E-1,-6.829397E-1,-2.7221417E-1,7.639376E-2,-3.8861737E-1,-1.1185964E-2,1.4599808E-1,-2.5838494E-1,9.393536E-1,1.699025E-2,-7.967996E-3,1.7210655E-1,1.9446611E-3,-8.649954E-3,-3.0372843E-1,-7.966774E-1,-3.7766695E-3,-1.5629834E-2,-1.6697645E-3,7.399297E-3,-2.7820135E-2,-3.5364468E-2,-3.972411E-3,3.133464E-3,-4.694026E-2,3.467598E-1,-1.6031425E-2,-1.791358E-3,5.695413E-1,5.763035E-2,1.2127161E-3,1.0150301E-2,-1.6979981E-3,-4.131427E-2,-5.5532522E-2,-2.4942119E-2,6.9165467E-3,-9.568882E-3,1.1051702E-2,-9.91684E-3,2.0682668E-2,3.072977E-4,3.137394E-2,6.9963457E-3],"categories":[],"categories_nodes":[],"categories_segments":[],"categories_sizes":[],"default_left":[0,0,0,0,0,0,0,0,0,0,0,0,0,0,0,0,0,0,0,0,0,0,0,0,0,0,0,0,0,0,0,0,0,0,0,0,0,0,0,0,0,0,0,0,0,0,0,0,0,0,0,0,0,0,0,0,0,0,0],"id":29,"left_children":[1,3,5,7,9,11,13,15,17,19,21,-1,23,25,-1,27,29,31,33,35,37,39,41,43,-1,-1,45,-1,-1,47,49,-1,-1,-1,-1,-1,51,-1,-1,53,55,-1,-1,57,-1,-1,-1,-1,-1,-1,-1,-1,-1,-1,-1,-1,-1,-1,-1],"loss_changes":[1.4542596E1,2.389861E0,8.196745E-1,7.5670815E-1,6.1044395E-1,4.205761E-1,6.5800375E-1,7.2777367E-1,1.9073662E-1,2.072081E-1,4.884262E-1,0E0,1.3919163E-1,1.4996763E-1,0E0,4.4144668E-2,5.77508E-1,8.158356E-3,2.8522143E-2,3.3594698E-1,2.010354E-2,4.810926E-1,4.3923944E-2,2.1104336E-1,0E0,0E0,1.7919019E-2,0E0,0E0,8.1775564E-1,7.5513077E-1,0E0,0E0,0E0,0E0,0E0,1.0776976E-1,0E0,0E0,3.2783186E-1,1.341669E-1,0E0,0E0,6.1543465E-2,0E0,0E0,0E0,0E0,0E0,0E0,0E0,0E0,0E0,0E0,0E0,0E0,0E0,0E0,0E0],"parents":[2147483647,0,0,1,1,2,2,3,3,4,4,5,5,6,6,7,7,8,8,9,9,10,10,12,12,13,13,15,15,16,16,17,17,18,18,19,19,20,20,21,21,22,22,23,23,26,26,29,29,30,30,36,36,39,39,40,40,43,43],"right_children":[2,4,6,8,10,12,14,16,18,20,22,-1,24,26,-1,28,30,32,34,36,38,40,42,44,-1,-1,46,-1,-1,48,50,-1,-1,-1,-1,-1,52,-1,-1,54,56,-1,-1,58,-1,-1,-1,-1,-1,-1,-1,-1,-1,-1,-1,-1,-1,-1,-1],"split_conditions":[5E0,1.9E1,1.399E1,4E0,9.35E0,5E0,1.535E1,4E0,1E1,3E0,1.185E1,4.662085E-3,2.8E1,1.306E1,3.960338E-2,2E0,8.46E0,3E0,1.3E1,2.3E1,4E0,1.057E1,1.13E1,1.091E1,1.699025E-2,-7.967996E-3,8E0,1.9446611E-3,-8.649954E-3,1.8E1,1.1E1,-3.7766695E-3,-1.5629834E-2,-1.6697645E-3,7.399297E-3,-2.7820135E-2,2.5E1,-3.972411E-3,3.133464E-3,1.029E1,2.9E1,-1.6031425E-2,-1.791358E-3,1.063E1,5.763035E-2,1.2127161E-3,1.0150301E-2,-1.6979981E-3,-4.131427E-2,-5.5532522E-2,-2.4942119E-2,6.9165467E-3,-9.568882E-3,1.1051702E-2,-9.91684E-3,2.0682668E-2,3.072977E-4,3.137394E-2,6.9963457E-3],"split_indices":[0,2,6,0,7,2,6,2,2,0,7,0,2,7,0,0,7,2,2,2,0,7,6,6,0,0,2,0,0,2,3,0,0,0,0,0,2,0,0,6,2,0,0,6,0,0,0,0,0,0,0,0,0,0,0,0,0,0,0],"split_type":[0,0,0,0,0,0,0,0,0,0,0,0,0,0,0,0,0,0,0,0,0,0,0,0,0,0,0,0,0,0,0,0,0,0,0,0,0,0,0,0,0,0,0,0,0,0,0,0,0,0,0,0,0,0,0,0,0,0,0],"sum_hessian":[6.6E1,4.7E1,1.9E1,2.6E1,2.1E1,1.3E1,6E0,2.1E1,5E0,7E0,1.4E1,1E0,1.2E1,5E0,1E0,3E0,1.8E1,3E0,2E0,5E0,2E0,1.1E1,3E0,1E1,2E0,1E0,4E0,1E0,2E0,5E0,1.3E1,1E0,2E0,1E0,1E0,3E0,2E0,1E0,1E0,6E0,5E0,2E0,1E0,5E0,5E0,1E0,3E0,4E0,1E0,5E0,8E0,1E0,1E0,2E0,4E0,4E0,1E0,4E0,1E0],"tree_param":{"num_deleted":"0","num_feature":"9","num_nodes":"59","size_leaf_vector":"1"}},{"base_weights":[-2.8441777E-2,-2.9981244E-1,6.729058E-1,-5.003021E-1,-5.1419757E-2,7.8822476E-1,3.6261272E-1,-3.7095502E-1,-8.1687146E-1,-2.7098298E-2,-4.4873846E-3,8.4195346E-1,1.6423894E-2,4.7668077E-2,3.8332477E-2,7.9061985E-3,-4.0531516E-1,-5.0728727E-2,-2.150758E-1,4.7419146E-2,-2.4992156E-1,5.72958E-1,5.2507818E-2,-7.768798E-3,1.3727307E-1,-4.9764866E-1,-1.6274603E-1,-1.8024946E-2,1.8942595E-3,-7.678611E-2,3.293282E-1,-1.5497048E-2,-1.746583E-3,3.1148735E-2,6.821442E-3,1.1823893E-3,8.3632795E-3,-3.619094E-2,-1.1877186E-2,-1.6798843E-2,2.5585652E-3,1.2662628E-3,-1.6919792E-2,8.008445E-3,2.2254897E-2],"categories":[],"categories_nodes":[],"categories_segments":[],"categories_sizes":[],"default_left":[0,0,0,0,0,0,0,0,0,0,0,0,0,0,0,0,0,0,0,0,0,0,0,0,0,0,0,0,0,0,0,0,0,0,0,0,0,0,0,0,0,0,0,0,0],"id":30,"left_children":[1,3,5,7,9,11,13,15,17,-1,19,21,-1,23,-1,-1,25,-1,27,29,31,33,-1,-1,35,37,39,-1,-1,41,43,-1,-1,-1,-1,-1,-1,-1,-1,-1,-1,-1,-1,-1,-1],"loss_changes":[1.2953532E1,2.414482E0,3.9404964E-1,8.025546E-1,5.2708536E-1,4.4558525E-2,8.5419995E-1,4.4585395E-1,6.146283E-1,0E0,2.9212308E-1,1.436615E-2,0E0,1.12297736E-1,0E0,0E0,3.669548E-1,0E0,1.240167E-1,6.9056505E-1,4.0787518E-2,6.784463E-2,0E0,0E0,9.676166E-3,6.5165305E-1,2.765919E-1,0E0,0E0,3.8255653E-1,4.621029E-2,0E0,0E0,0E0,0E0,0E0,0E0,0E0,0E0,0E0,0E0,0E0,0E0,0E0,0E0],"parents":[2147483647,0,0,1,1,2,2,3,3,4,4,5,5,6,6,7,7,8,8,10,10,11,11,13,13,16,16,18,18,19,19,20,20,21,21,24,24,25,25,26,26,29,29,30,30],"right_children":[2,4,6,8,10,12,14,16,18,-1,20,22,-1,24,-1,-1,26,-1,28,30,32,34,-1,-1,36,38,40,-1,-1,42,44,-1,-1,-1,-1,-1,-1,-1,-1,-1,-1,-1,-1,-1,-1],"split_conditions":[5E0,1.9E1,1.399E1,1.111E1,8.21E0,2.8E1,1.535E1,1E0,1.37E1,-2.7098298E-2,1.174E1,1.091E1,1.6423894E-2,1.306E1,3.8332477E-2,7.9061985E-3,1.4E1,-5.0728727E-2,1.6E1,1.057E1,1.13E1,1.081E1,5.2507818E-2,-7.768798E-3,8E0,1.1E1,3E0,-1.8024946E-2,1.8942595E-3,1.306E1,4E0,-1.5497048E-2,-1.746583E-3,3.1148735E-2,6.821442E-3,1.1823893E-3,8.3632795E-3,-3.619094E-2,-1.1877186E-2,-1.6798843E-2,2.5585652E-3,1.2662628E-3,-1.6919792E-2,8.008445E-3,2.2254897E-2],"split_indices":[0,2,6,6,6,2,6,0,6,0,7,6,0,7,0,0,2,0,2,7,6,6,0,0,2,3,0,0,0,6,0,0,0,0,0,0,0,0,0,0,0,0,0,0,0],"split_type":[0,0,0,0,0,0,0,0,0,0,0,0,0,0,0,0,0,0,0,0,0,0,0,0,0,0,0,0,0,0,0,0,0,0,0,0,0,0,0,0,0,0,0,0,0],"sum_hessian":[6.6E1,4.8E1,1.8E1,2.6E1,2.2E1,1.2E1,6E0,2E1,6E0,1E0,2.1E1,1E1,2E0,4E0,2E0,1E0,1.9E1,4E0,2E0,1.8E1,3E0,6E0,4E0,1E0,3E0,1.3E1,6E0,1E0,1E0,1.3E1,5E0,2E0,1E0,5E0,1E0,1E0,2E0,6E0,7E0,3E0,3E0,1E1,3E0,3E0,2E0],"tree_param":{"num_deleted":"0","num_feature":"9","num_nodes":"45","size_leaf_vector":"1"}},{"base_weights":[-8.959791E-3,-3.04919E-1,6.3717663E-1,-4.7958696E-1,-3.6404513E-2,8.209345E-1,4.1563392E-1,-6.773605E-1,-3.0013734E-1,-2.6420832E-2,1.7302262E-2,4.2855635E-2,1.1478806E-2,-3.18892E-2,5.683515E-1,-7.433264E-1,-2.0969868E-1,-4.5093596E-1,-1.4948472E-1,-1.631387E-1,9.339823E-2,2.9237748E-3,-7.574582E-3,7.8704095E-1,3.2783332E-1,-3.6281663E-1,-4.544648E-2,-1.757431E-2,1.8469095E-3,-7.0591094E-3,-3.042759E-2,-1.9787343E-1,7.1503404E-3,-1.821882E-2,2.8574228E-2,2.2197222E-2,3.2283563E-2,1.1826539E-2,4.4585038E-2,3.5851242E-3,1.823595E-2,2.192974E-3,-2.3772527E-2,-1.2162543E-2,4.128647E-3,9.437228E-3,-4.3865363E-3,7.3509696E-3,-4.35321E-3],"categories":[],"categories_nodes":[],"categories_segments":[],"categories_sizes":[],"default_left":[0,0,0,0,0,0,0,0,0,0,0,0,0,0,0,0,0,0,0,0,0,0,0,0,0,0,0,0,0,0,0,0,0,0,0,0,0,0,0,0,0,0,0,0,0,0,0,0,0],"id":31,"left_children":[1,3,5,7,9,11,13,15,17,-1,19,-1,-1,21,23,25,27,29,31,33,35,-1,-1,37,39,41,-1,-1,-1,-1,-1,43,-1,-1,45,-1,47,-1,-1,-1,-1,-1,-1,-1,-1,-1,-1,-1,-1],"loss_changes":[1.3389158E1,2.2337832E0,5.5441666E-1,8.259206E-1,5.376305E-1,3.8564682E-2,8.3825994E-1,2.4517155E-1,3.188014E-1,0E0,2.7612263E-1,0E0,0E0,5.20899E-2,2.153709E-1,3.6337566E-1,1.1789337E-1,3.0466008E-1,1.6983014E-1,2.4189098E-1,2.8559712E-1,0E0,0E0,1.9550323E-2,3.0534089E-2,2.4988055E-1,0E0,0E0,0E0,0E0,0E0,1.3461933E-1,0E0,0E0,9.10731E-2,0E0,1.9081515E-1,0E0,0E0,0E0,0E0,0E0,0E0,0E0,0E0,0E0,0E0,0E0,0E0],"parents":[2147483647,0,0,1,1,2,2,3,3,4,4,5,5,6,6,7,7,8,8,10,10,13,13,14,14,15,15,16,16,17,17,18,18,19,19,20,20,23,23,24,24,25,25,31,31,34,34,36,36],"right_children":[2,4,6,8,10,12,14,16,18,-1,20,-1,-1,22,24,26,28,30,32,34,36,-1,-1,38,40,42,-1,-1,-1,-1,-1,44,-1,-1,46,-1,48,-1,-1,-1,-1,-1,-1,-1,-1,-1,-1,-1,-1],"split_conditions":[5E0,1.9E1,6E0,2E0,8.21E0,2.8E1,1.2E1,1.37E1,9E0,-2.6420832E-2,1E0,4.2855635E-2,1.1478806E-2,8E0,1.9E1,9.35E0,1.6E1,4E0,9.85E0,2.3E1,2E1,2.9237748E-3,-7.574582E-3,7.35E0,1.1E1,3E0,-4.544648E-2,-1.757431E-2,1.8469095E-3,-7.0591094E-3,-3.042759E-2,1.8E1,7.1503404E-3,-1.821882E-2,2.5E1,2.2197222E-2,3E0,1.1826539E-2,4.4585038E-2,3.5851242E-3,1.823595E-2,2.192974E-3,-2.3772527E-2,-1.2162543E-2,4.128647E-3,9.437228E-3,-4.3865363E-3,7.3509696E-3,-4.35321E-3],"split_indices":[0,2,0,0,6,2,2,6,2,0,0,0,0,2,2,6,2,2,6,2,2,0,0,6,3,2,0,0,0,0,0,2,0,0,2,0,0,0,0,0,0,0,0,0,0,0,0,0,0],"split_type":[0,0,0,0,0,0,0,0,0,0,0,0,0,0,0,0,0,0,0,0,0,0,0,0,0,0,0,0,0,0,0,0,0,0,0,0,0,0,0,0,0,0,0,0,0,0,0,0,0],"sum_hessian":[6.8E1,4.7E1,2.1E1,2.8E1,1.9E1,1E1,1.1E1,1.2E1,1.6E1,1E0,1.8E1,9E0,1E0,3E0,8E0,1E1,2E0,7E0,9E0,5E0,1.3E1,2E0,1E0,3E0,5E0,4E0,6E0,1E0,1E0,3E0,4E0,8E0,1E0,2E0,3E0,1E0,1.2E1,1E0,2E0,1E0,4E0,1E0,3E0,7E0,1E0,1E0,2E0,6E0,6E0],"tree_param":{"num_deleted":"0","num_feature":"9","num_nodes":"49","size_leaf_vector":"1"}},{"base_weights":[-2.009996E-2,-2.8930175E-1,6.2698936E-1,-5.3341305E-1,-9.58861E-2,2.797289E-1,7.5583464E-1,-4.0668726E-2,-6.1327773E-1,-4.059677E-1,7.134698E-3,3.101252E-2,1.9470215E-2,9.583616E-1,4.841442E-1,8.84471E-3,-8.607722E-3,-7.198575E-1,-1.9219875E-1,-5.630457E-1,-8.848508E-3,5.908173E-2,-2.4139738E-1,9.818983E-2,-7.3852064E-3,1.1530876E-2,5.20608E-2,1.1102152E-2,2.9849816E-2,-5.012689E-2,-2.2570992E-2,-1.359787E-2,-2.418693E-3,1.8007279E-3,-7.218144E-1,-3.7959337E-3,3.1322956E-3,-2.682817E-2,1.9397546E-2,-1.5030432E-2,-1.5940905E-3,5.826171E-3,1.0797263E-3,-4.2424902E-2,-8.544087E-3,-7.9427175E-3,3.4136486E-3],"categories":[],"categories_nodes":[],"categories_segments":[],"categories_sizes":[],"default_left":[0,0,0,0,0,0,0,0,0,0,0,0,0,0,0,0,0,0,0,0,0,0,0,0,0,0,0,0,0,0,0,0,0,0,0,0,0,0,0,0,0,0,0,0,0,0,0],"id":32,"left_children":[1,3,5,7,9,11,13,15,17,19,21,-1,23,25,27,-1,-1,29,31,33,35,37,39,41,-1,-1,-1,-1,-1,-1,-1,-1,-1,-1,43,-1,-1,45,-1,-1,-1,-1,-1,-1,-1,-1,-1],"loss_changes":[1.185263E1,2.2151704E0,6.8342876E-1,8.014684E-1,8.9735234E-1,6.082893E-1,3.0635977E-1,1.4487876E-1,6.694579E-1,4.3166864E-1,2.9829326E-1,0E0,8.030255E-2,1.8195534E-1,1.04070544E-1,0E0,0E0,6.097832E-1,4.4200763E-2,5.015557E-1,1.9141423E-2,5.4721725E-1,4.0038764E-2,3.1008013E-3,0E0,0E0,0E0,0E0,0E0,0E0,0E0,0E0,0E0,0E0,1.3418365E-1,0E0,0E0,2.1173891E-1,0E0,0E0,0E0,0E0,0E0,0E0,0E0,0E0,0E0],"parents":[2147483647,0,0,1,1,2,2,3,3,4,4,5,5,6,6,7,7,8,8,9,9,10,10,12,12,13,13,14,14,17,17,18,18,19,19,20,20,21,21,22,22,23,23,34,34,37,37],"right_children":[2,4,6,8,10,12,14,16,18,20,22,-1,24,26,28,-1,-1,30,32,34,36,38,40,42,-1,-1,-1,-1,-1,-1,-1,-1,-1,-1,44,-1,-1,46,-1,-1,-1,-1,-1,-1,-1,-1,-1],"split_conditions":[5E0,1.6E1,1.4E1,8.46E0,8.03E0,9.92E0,2.3E1,1E0,4E0,3E0,1.185E1,3.101252E-2,1.467E1,7.35E0,2.6E1,8.84471E-3,-8.607722E-3,1.1E1,9.2E0,1E0,4E0,4E0,1.13E1,1.386E1,-7.3852064E-3,1.1530876E-2,5.20608E-2,1.1102152E-2,2.9849816E-2,-5.012689E-2,-2.2570992E-2,-1.359787E-2,-2.418693E-3,1.8007279E-3,2E1,-3.7959337E-3,3.1322956E-3,2.3E1,1.9397546E-2,-1.5030432E-2,-1.5940905E-3,5.826171E-3,1.0797263E-3,-4.2424902E-2,-8.544087E-3,-7.9427175E-3,3.4136486E-3],"split_indices":[0,2,2,7,7,6,2,0,0,0,7,0,6,6,2,0,0,3,6,0,0,0,6,6,0,0,0,0,0,0,0,0,0,0,2,0,0,2,0,0,0,0,0,0,0,0,0],"split_type":[0,0,0,0,0,0,0,0,0,0,0,0,0,0,0,0,0,0,0,0,0,0,0,0,0,0,0,0,0,0,0,0,0,0,0,0,0,0,0,0,0,0,0,0,0,0,0],"sum_hessian":[6.6E1,4.7E1,1.9E1,2E1,2.7E1,6E0,1.3E1,3E0,1.7E1,6E0,2.1E1,2E0,4E0,6E0,7E0,1E0,2E0,1.3E1,4E0,4E0,2E0,1.8E1,3E0,3E0,1E0,1E0,5E0,3E0,4E0,5E0,8E0,2E0,2E0,1E0,3E0,1E0,1E0,1.5E1,3E0,2E0,1E0,2E0,1E0,2E0,1E0,6E0,9E0],"tree_param":{"num_deleted":"0","num_feature":"9","num_nodes":"47","size_leaf_vector":"1"}},{"base_weights":[-4.5552044E-3,-2.8110182E-1,6.277683E-1,-3.9326826E-1,1.9392898E-2,7.574947E-1,4.4097206E-1,-5.7500494E-1,-1.1261895E-1,1.095849E-1,-2.3348331E-1,4.284172E-2,1.8472075E-2,6.7430973E-1,1.3413906E-1,-6.1798275E-1,-2.3785377E-1,-2.9754245E-1,1.4122827E-1,2.0106094E-1,-1.5528996E-4,-1.4529402E-2,-1.5542269E-3,1.4917517E-2,3.938509E-2,1.0527372E-3,7.6272488E-3,-4.5317093E-1,-4.3603893E-2,1.7557144E-3,-1.7027395E-2,-4.678936E-1,-1.3438463E-1,3.1868005E-1,-7.153058E-2,1.2230015E-2,-4.1589738E-4,-1.6161537E-1,1.0758829E-2,8.6236E-3,-2.5984025E-2,-2.6964108E-2,-6.343198E-3,-1.0168696E-2,-2.4523258E-3,4.2240145E-3,1.8429328E-2,-6.8047047E-3,3.053999E-3,-1.3131142E-3,-9.8989485E-3],"categories":[],"categories_nodes":[],"categories_segments":[],"categories_sizes":[],"default_left":[0,0,0,0,0,0,0,0,0,0,0,0,0,0,0,0,0,0,0,0,0,0,0,0,0,0,0,0,0,0,0,0,0,0,0,0,0,0,0,0,0,0,0,0,0,0,0,0,0,0,0],"id":33,"left_children":[1,3,5,7,9,11,13,15,17,19,21,-1,-1,23,25,27,29,31,33,35,37,-1,-1,-1,-1,-1,-1,39,-1,-1,-1,41,43,45,47,-1,-1,49,-1,-1,-1,-1,-1,-1,-1,-1,-1,-1,-1,-1,-1],"loss_changes":[1.2067417E1,1.6254866E0,1.7484665E-1,1.7203932E0,3.4489E-1,1.07489586E-1,6.971016E-1,1.5730095E-1,7.461562E-1,1.10455796E-1,3.7198946E-2,0E0,0E0,2.0773888E-2,9.276733E-3,3.5860205E-1,1.2408696E-1,1.8726933E-1,2.870764E-1,5.673191E-2,2.4338084E-1,0E0,0E0,0E0,0E0,0E0,0E0,6.305764E-1,0E0,0E0,0E0,2.8967083E-2,2.5349706E-2,1.5614033E-2,4.2559836E-2,0E0,0E0,1.44883245E-2,0E0,0E0,0E0,0E0,0E0,0E0,0E0,0E0,0E0,0E0,0E0,0E0,0E0],"parents":[2147483647,0,0,1,1,2,2,3,3,4,4,5,5,6,6,7,7,8,8,9,9,10,10,13,13,14,14,15,15,16,16,17,17,18,18,19,19,20,20,27,27,31,31,32,32,33,33,34,34,37,37],"right_children":[2,4,6,8,10,12,14,16,18,20,22,-1,-1,24,26,28,30,32,34,36,38,-1,-1,-1,-1,-1,-1,40,-1,-1,-1,42,44,46,48,-1,-1,50,-1,-1,-1,-1,-1,-1,-1,-1,-1,-1,-1,-1,-1],"split_conditions":[5E0,2.3E1,6E0,3E0,1.174E1,1.5E1,1.361E1,1.37E1,1.6E1,2.6E1,1.13E1,4.284172E-2,1.8472075E-2,1.367E1,1.37E1,1.111E1,1.387E1,9.2E0,2E1,3E0,3E0,-1.4529402E-2,-1.5542269E-3,1.4917517E-2,3.938509E-2,1.0527372E-3,7.6272488E-3,1E0,-4.3603893E-2,1.7557144E-3,-1.7027395E-2,9E0,9.2E0,4E0,4E0,1.2230015E-2,-4.1589738E-4,1.1E1,1.0758829E-2,8.6236E-3,-2.5984025E-2,-2.6964108E-2,-6.343198E-3,-1.0168696E-2,-2.4523258E-3,4.2240145E-3,1.8429328E-2,-6.8047047E-3,3.053999E-3,-1.3131142E-3,-9.8989485E-3],"split_indices":[0,2,0,0,7,7,7,6,2,2,6,0,0,6,7,6,6,6,2,0,0,0,0,0,0,0,0,0,0,0,0,2,7,0,0,0,0,3,0,0,0,0,0,0,0,0,0,0,0,0,0],"split_type":[0,0,0,0,0,0,0,0,0,0,0,0,0,0,0,0,0,0,0,0,0,0,0,0,0,0,0,0,0,0,0,0,0,0,0,0,0,0,0,0,0,0,0,0,0,0,0,0,0,0,0],"sum_hessian":[6.7E1,4.7E1,2E1,3.4E1,1.3E1,1E1,1E1,2E1,1.4E1,1E1,3E0,7E0,3E0,5E0,5E0,1.7E1,3E0,8E0,6E0,5E0,5E0,2E0,1E0,2E0,3E0,1E0,4E0,1.2E1,5E0,1E0,2E0,3E0,5E0,3E0,3E0,4E0,1E0,3E0,2E0,1E0,1.1E1,2E0,1E0,2E0,3E0,1E0,2E0,2E0,1E0,1E0,2E0],"tree_param":{"num_deleted":"0","num_feature":"9","num_nodes":"51","size_leaf_vector":"1"}},{"base_weights":[-1.9233711E-2,-2.2687976E-1,5.2402174E-1,-2.961954E-1,2.689821E-2,3.0851591E-2,2.8971562E-1,-4.446094E-1,-1.9727905E-1,-1.3822405E-1,2.5268975E-1,5.645752E-3,3.3329677E-2,-2.7499893E-1,-3.9994296E-2,-2.4328026E-1,-1.8728733E-2,6.827482E-2,-1.1723928E-2,3.3101583E-1,-1.5153646E-3,-8.185196E-3,8.890915E-2,8.407998E-3,-3.361308E-1,-4.535265E-1,-1.9186738E-1,-8.463494E-3,9.885931E-2,6.0258866E-3,-9.0527534E-4,2.9776574E-3,2.0082617E-2,1.0264158E-3,5.242999E-3,-2.449665E-2,-7.5970255E-3,1.7118215E-3,-3.572631E-2,4.7902465E-3,-1.3017734E-2,6.860956E-3,-4.0550233E-4],"categories":[],"categories_nodes":[],"categories_segments":[],"categories_sizes":[],"default_left":[0,0,0,0,0,0,0,0,0,0,0,0,0,0,0,0,0,0,0,0,0,0,0,0,0,0,0,0,0,0,0,0,0,0,0,0,0,0,0,0,0,0,0],"id":34,"left_children":[1,3,5,7,9,-1,11,13,15,17,19,21,-1,23,-1,25,27,29,-1,31,-1,-1,33,-1,35,37,39,-1,41,-1,-1,-1,-1,-1,-1,-1,-1,-1,-1,-1,-1,-1,-1],"loss_changes":[7.3384E0,8.347337E-1,2.1350718E-1,4.5546865E-1,4.4504312E-1,0E0,7.456542E-1,6.2365294E-1,1.9256848E-1,1.551441E-1,1.20862454E-1,8.505792E-2,0E0,3.5452616E-1,0E0,1.1836088E-1,1.22944936E-1,1.5720315E-2,0E0,5.2781016E-2,0E0,0E0,2.2103302E-3,0E0,2.08848E-1,4.063807E-1,3.5987544E-1,0E0,1.7526146E-2,0E0,0E0,0E0,0E0,0E0,0E0,0E0,0E0,0E0,0E0,0E0,0E0,0E0,0E0],"parents":[2147483647,0,0,1,1,2,2,3,3,4,4,6,6,7,7,8,8,9,9,10,10,11,11,13,13,15,15,16,16,17,17,19,19,22,22,24,24,25,25,26,26,28,28],"right_children":[2,4,6,8,10,-1,12,14,16,18,20,22,-1,24,-1,26,28,30,-1,32,-1,-1,34,-1,36,38,40,-1,42,-1,-1,-1,-1,-1,-1,-1,-1,-1,-1,-1,-1,-1,-1],"split_conditions":[5E0,4E0,1.399E1,1.1E1,1.08E1,3.0851591E-2,1.5E1,1.057E1,3E0,9.92E0,1.174E1,1.306E1,3.3329677E-2,7.54E0,-3.9994296E-2,7.35E0,9.2E0,1.1E1,-1.1723928E-2,1.088E1,-1.5153646E-3,-8.185196E-3,1.37E1,8.407998E-3,8.81E0,1E0,1.2E1,-8.463494E-3,1.095E1,6.0258866E-3,-9.0527534E-4,2.9776574E-3,2.0082617E-2,1.0264158E-3,5.242999E-3,-2.449665E-2,-7.5970255E-3,1.7118215E-3,-3.572631E-2,4.7902465E-3,-1.3017734E-2,6.860956E-3,-4.0550233E-4],"split_indices":[0,0,6,3,6,0,6,7,0,7,7,7,0,7,0,7,7,3,0,6,0,0,7,0,7,0,3,0,6,0,0,0,0,0,0,0,0,0,0,0,0,0,0],"split_type":[0,0,0,0,0,0,0,0,0,0,0,0,0,0,0,0,0,0,0,0,0,0,0,0,0,0,0,0,0,0,0,0,0,0,0,0,0,0,0,0,0,0,0],"sum_hessian":[6.3E1,4.6E1,1.7E1,3.6E1,1E1,1.1E1,6E0,1.3E1,2.3E1,6E0,4E0,4E0,2E0,1E1,3E0,1.8E1,5E0,2E0,4E0,3E0,1E0,1E0,3E0,1E0,9E0,2E0,1.6E1,2E0,3E0,1E0,1E0,1E0,2E0,1E0,2E0,4E0,5E0,1E0,1E0,3E0,1.3E1,2E0,1E0],"tree_param":{"num_deleted":"0","num_feature":"9","num_nodes":"43","size_leaf_vector":"1"}},{"base_weights":[-3.107448E-3,-2.3527181E-1,5.166465E-1,-4.327648E-1,-7.2952375E-2,1.7980535E-1,6.393959E-1,8.197809E-3,-4.7079867E-1,-1.9524527E-1,9.618417E-2,2.1868056E-2,-1.0689164E-2,7.224744E-1,1.151557E-2,-6.986808E-1,-2.6065382E-1,-6.399107E-2,-2.3560314E-2,3.0016685E-1,-5.161921E-3,6.644416E-2,-7.980562E-3,8.609851E-1,4.4046625E-1,-2.7988172E-1,-4.3071672E-2,-3.363387E-2,-3.026944E-1,-2.524624E-1,1.0669736E-1,6.5480866E-3,2.0194555E-2,-9.193243E-2,9.951162E-3,3.7624359E-3,1.000762E-3,1.0098386E-2,4.6858E-2,6.4536096E-3,2.819476E-2,3.6774636E-3,-2.1110423E-2,-3.3638478E-4,-2.1861554E-3,-2.1921206E-2,-6.9568637E-3,1.6690254E-3,-1.5815353E-2,1.1650431E-2,-2.3144127E-3,-2.7740796E-4,-6.2688254E-3],"categories":[],"categories_nodes":[],"categories_segments":[],"categories_sizes":[],"default_left":[0,0,0,0,0,0,0,0,0,0,0,0,0,0,0,0,0,0,0,0,0,0,0,0,0,0,0,0,0,0,0,0,0,0,0,0,0,0,0,0,0,0,0,0,0,0,0,0,0,0,0,0,0],"id":35,"left_children":[1,3,5,7,9,11,13,-1,15,17,19,-1,21,23,-1,25,27,29,-1,31,33,35,-1,37,39,41,-1,43,45,47,49,-1,-1,51,-1,-1,-1,-1,-1,-1,-1,-1,-1,-1,-1,-1,-1,-1,-1,-1,-1,-1,-1],"loss_changes":[8.206331E0,1.4751055E0,7.533212E-1,5.537982E-1,5.7725286E-1,3.481157E-1,3.433981E-1,0E0,7.75651E-1,5.493837E-1,2.496236E-1,0E0,6.80395E-2,8.9499E-2,0E0,3.723464E-1,1.04347885E-1,4.1297555E-1,0E0,1.7308414E-2,1.7775197E-1,1.2902543E-4,0E0,1.6212797E-1,1.5782702E-1,2.322639E-1,0E0,5.2023237E-4,1.6099447E-1,1.20055765E-1,1.460522E-1,0E0,0E0,1.9527681E-2,0E0,0E0,0E0,0E0,0E0,0E0,0E0,0E0,0E0,0E0,0E0,0E0,0E0,0E0,0E0,0E0,0E0,0E0,0E0],"parents":[2147483647,0,0,1,1,2,2,3,3,4,4,5,5,6,6,8,8,9,9,10,10,12,12,13,13,15,15,16,16,17,17,19,19,20,20,21,21,23,23,24,24,25,25,27,27,28,28,29,29,30,30,33,33],"right_children":[2,4,6,8,10,12,14,-1,16,18,20,-1,22,24,-1,26,28,30,-1,32,34,36,-1,38,40,42,-1,44,46,48,50,-1,-1,52,-1,-1,-1,-1,-1,-1,-1,-1,-1,-1,-1,-1,-1,-1,-1,-1,-1,-1,-1],"split_conditions":[5E0,1.6E1,1.4E1,7.54E0,3E0,1.081E1,1.5E1,8.197809E-3,2E0,2E0,2E1,2.1868056E-2,1.467E1,2.3E1,1.151557E-2,8.99E0,3E0,2.3E1,-2.3560314E-2,1.9E1,2.7E1,1.386E1,-7.980562E-3,7.35E0,2.6E1,3E0,-4.3071672E-2,4E0,9E0,7.35E0,2.6E1,6.5480866E-3,2.0194555E-2,2.2E1,9.951162E-3,3.7624359E-3,1.000762E-3,1.0098386E-2,4.6858E-2,6.4536096E-3,2.819476E-2,3.6774636E-3,-2.1110423E-2,-3.3638478E-4,-2.1861554E-3,-2.1921206E-2,-6.9568637E-3,1.6690254E-3,-1.5815353E-2,1.1650431E-2,-2.3144127E-3,-2.7740796E-4,-6.2688254E-3],"split_indices":[0,2,2,7,0,6,7,0,0,0,2,0,6,2,0,6,2,2,0,2,2,6,0,6,2,2,0,0,2,7,2,0,0,2,0,0,0,0,0,0,0,0,0,0,0,0,0,0,0,0,0,0,0],"split_type":[0,0,0,0,0,0,0,0,0,0,0,0,0,0,0,0,0,0,0,0,0,0,0,0,0,0,0,0,0,0,0,0,0,0,0,0,0,0,0,0,0,0,0,0,0,0,0,0,0,0,0,0,0],"sum_hessian":[6.6E1,4.6E1,2E1,2E1,2.6E1,6E0,1.4E1,1E0,1.9E1,1.5E1,1.1E1,2E0,4E0,1.1E1,3E0,8E0,1.1E1,1.1E1,4E0,3E0,8E0,3E0,1E0,6E0,5E0,3E0,5E0,2E0,9E0,5E0,6E0,2E0,1E0,6E0,2E0,2E0,1E0,1E0,5E0,2E0,3E0,1E0,2E0,1E0,1E0,4E0,5E0,1E0,4E0,3E0,3E0,2E0,4E0],"tree_param":{"num_deleted":"0","num_feature":"9","num_nodes":"53","size_leaf_vector":"1"}},{"base_weights":[-5.9463824E-3,-2.1129744E-1,4.699164E-1,-4.2765307E-1,4.83828E-3,6.649805E-1,2.6759884E-1,7.992864E-3,-4.63242E-1,-3.7457713E-1,1.044298E-1,3.959724E-1,4.511237E-2,1.206132E-1,3.0967807E-2,-6.7046946E-1,-2.8414285E-1,-2.1754874E-2,-3.312397E-3,1.6307656E-1,-1.3135592E-2,2.2359353E-2,3.4974813E-3,-7.7810525E-3,1.7459512E-1,-2.702458E-1,-4.1277017E-2,-3.7074852E-1,-1.2131151E-1,8.541671E-2,2.9121685E-1,1.955875E-3,2.1323474E-1,3.5855293E-3,-2.040674E-2,-2.5621224E-2,-5.048323E-3,-1.6396523E-3,-7.868624E-3,8.274222E-3,-5.804491E-3,1.7007217E-2,1.1644841E-3,2.7348518E-3,1.1700144E-2],"categories":[],"categories_nodes":[],"categories_segments":[],"categories_sizes":[],"default_left":[0,0,0,0,0,0,0,0,0,0,0,0,0,0,0,0,0,0,0,0,0,0,0,0,0,0,0,0,0,0,0,0,0,0,0,0,0,0,0,0,0,0,0,0,0],"id":36,"left_children":[1,3,5,7,9,11,13,-1,15,17,19,21,-1,23,-1,25,27,-1,-1,29,-1,-1,-1,-1,31,33,-1,35,37,39,41,-1,43,-1,-1,-1,-1,-1,-1,-1,-1,-1,-1,-1,-1],"loss_changes":[6.157865E0,2.0596046E0,5.7188463E-1,5.340481E-1,9.0820783E-1,2.1717572E-1,4.940334E-1,0E0,5.888901E-1,6.447655E-2,4.5194393E-1,6.8902254E-2,0E0,1.6137554E-1,0E0,3.354683E-1,1.3835144E-1,0E0,0E0,1.4429829E-1,0E0,0E0,0E0,0E0,3.353724E-2,2.1787569E-1,0E0,2.5403523E-1,1.39916465E-2,2.1282107E-1,7.073212E-2,0E0,6.9559216E-3,0E0,0E0,0E0,0E0,0E0,0E0,0E0,0E0,0E0,0E0,0E0,0E0],"parents":[2147483647,0,0,1,1,2,2,3,3,4,4,5,5,6,6,8,8,9,9,10,10,11,11,13,13,15,15,16,16,19,19,24,24,25,25,27,27,28,28,29,29,30,30,32,32],"right_children":[2,4,6,8,10,12,14,-1,16,18,20,22,-1,24,-1,26,28,-1,-1,30,-1,-1,-1,-1,32,34,-1,36,38,40,42,-1,44,-1,-1,-1,-1,-1,-1,-1,-1,-1,-1,-1,-1],"split_conditions":[5E0,1.6E1,1.206E1,7.54E0,9.36E0,1.091E1,1.535E1,7.992864E-3,2E0,3E0,1.185E1,1.2E1,4.511237E-2,1.306E1,3.0967807E-2,8.99E0,9.54E0,-2.1754874E-2,-3.312397E-3,1.054E1,-1.3135592E-2,2.2359353E-2,3.4974813E-3,-7.7810525E-3,8E0,3E0,-4.1277017E-2,9E0,3E0,9.92E0,2.9E1,1.955875E-3,1.1E1,3.5855293E-3,-2.040674E-2,-2.5621224E-2,-5.048323E-3,-1.6396523E-3,-7.868624E-3,8.274222E-3,-5.804491E-3,1.7007217E-2,1.1644841E-3,2.7348518E-3,1.1700144E-2],"split_indices":[0,2,6,7,6,6,6,0,0,0,7,3,0,7,0,6,6,0,0,7,0,0,0,0,2,2,0,2,2,7,2,0,3,0,0,0,0,0,0,0,0,0,0,0,0],"split_type":[0,0,0,0,0,0,0,0,0,0,0,0,0,0,0,0,0,0,0,0,0,0,0,0,0,0,0,0,0,0,0,0,0,0,0,0,0,0,0,0,0,0,0,0,0],"sum_hessian":[6.1E1,4.3E1,1.8E1,2.1E1,2.2E1,8E0,1E1,1E0,2E1,4E0,1.8E1,5E0,3E0,8E0,2E0,8E0,1.2E1,3E0,1E0,1.6E1,2E0,4E0,1E0,1E0,7E0,3E0,5E0,7E0,5E0,1.1E1,5E0,2E0,5E0,1E0,2E0,4E0,3E0,2E0,3E0,8E0,3E0,4E0,1E0,1E0,4E0],"tree_param":{"num_deleted":"0","num_feature":"9","num_nodes":"45","size_leaf_vector":"1"}},{"base_weights":[9.6783005E-3,-2.2003502E-1,4.9998954E-1,-3.9844516E-1,-3.2456756E-2,5.9634125E-1,2.568314E-1,-2.8884837E-1,-6.790941E-1,-2.2024035E-2,4.4347513E-3,2.0964558E-1,6.397063E-1,4.308637E-2,2.9935552E-2,-3.2221338E-1,7.793045E-3,-4.4786867E-2,-1.6387177E-1,4.5177888E-2,-2.0038962E-1,1.3814258E-2,1.9091606E-3,6.945702E-1,1.1265167E-2,-7.586527E-3,1.1239586E-1,1.1183739E-2,-3.896384E-1,-1.3710833E-2,1.4204503E-3,-5.3428445E-2,2.3593657E-1,-1.2697728E-2,